[{"neurons":[{"weights":[0.12072780889855572,-0.2032546887338551,0.0901519367687107,0.07168821186124585,0.46646618197754797,0.14005729878137396,-0.18209242549558224,-0.2635156148118418,-0.27849872905766127,0.30601093657749834,-0.14012638723554605,0.3233275714806567,-0.31080237098976293,-0.24368874578938549,0.027666445311760546,0.31251860714453894,-0.1401798673739847,0.36121026444758186,0.17557909181035503,0.4769018341840159,-0.325664940162945,0.12389806332184694,0.4489771434573646,0.3911108418106124,0.07368821101191125],"bias":-0.13223530737691086},{"weights":[0.17591343624098177,-0.2086684157816765,-0.09620100224275419,0.2249466871688115,-0.016152901072387094,-0.3263999306471952,-0.4143496443258543,0.31024944360386875,-0.1463314890647276,-0.040794983315693534,-0.22147734077380554,-0.449932069484148,-0.47199078802125904,0.0050693204227629796,-0.1620847206095617,0.29509295349812326,0.07525313565781167,-0.026673897221896503,-0.4059733215354373,-0.4865272779515666,0.3171134937120357,-0.1690544453956928,0.4543469481993059,-0.31626158213129885,-0.3412430342336157],"bias":0.2508719562501237},{"weights":[-0.27844068450725,-0.17925092484663385,0.2573569618517759,0.00784111860969161,0.47652348602166095,-0.3235033346239915,0.20113854467883696,-0.04166830562777557,0.2247317431621163,-0.3402359614936996,0.05554880170977361,-0.3803720808327442,0.10128581956458782,0.3255801592809626,0.4408405590748923,0.20902861023530606,-0.4705918715928634,0.33637421023999114,0.3576093959126654,-0.458106156829017,-0.03559355072687409,-0.10142575468841208,-0.15627523926751796,-0.03081842795109857,0.18642789142128136],"bias":-0.23400499192744006}],"activationFn":"relu","rowSize":28,"filterSize":5,"poolSize":2},{"neurons":[{"weights":[-0.12230869408258954,-0.3202849006238778,0.022415237341638455,0.10277998127690444,0.22545695245377734,0.10327158523737719,-0.061668920207004,-0.35200318718442025,0.44852888848277983,-0.10652682868998148,0.3813167387577749,-0.41133690577690685,0.22339264085919694,0.0637956167207744,-0.1666880933033933,0.21395473143453242,-0.464025862742273,-0.3598490483792564,-0.4039339667577078,0.1356111849187333,0.1581582832627698,-0.29362961271548577,-0.024871989229637542,0.041826950963434965,0.2772925711187075,-0.5837749053943899,0.0777026579274711,-0.4033040934199948,-0.6297145196557934,-0.45770095819278644,-0.043893006042428365,-0.20501851855000944,0.04801138662745155,0.3314884222066566,0.5523764902996243,-0.34742406823058597,-0.4072426160272748,-0.21812361287426296,-0.17967901980955925,0.2601168897899221,-0.15154501439367998,-0.1781724204933457,0.1817727835561429,0.0017549205544857341,0.301542861303925,0.4221245749908399,0.01908849286091541,0.21128091297950863,-0.1171391570104866,0.3039565219190145,0.30339539250017683,0.11370953289913173,0.8166425224921603,0.42514728605587365,0.303053484227342,-0.032732809759657366,0.21911666709958258,0.6709374395726567,-0.06965324219656319,0.2245285646609535,-0.48770207912257896,0.4200014947934438,0.3759752972912613,0.5392740092564814,0.2404325098176538,0.21451312705361747,-0.1127445439385001,0.23851106888759527,-0.24101018939145122,-0.09414657715329007,-0.47124056398513464,0.1532201581458297,-0.6179668217273574,-0.07977111807522093,0.002434510606358229,-0.06930099292690786,-0.17415375714287126,-0.4036229779933001,0.07347917971540072,-0.12326470782052046,0.09076918361534264,-0.39650989101713285,-0.6937767079876033,-0.020542054859389123,-0.28441271171000415,-0.16409151270415678,-0.14213422176350923,0.11612131187039286,-0.48291965537633363,-0.016200644493198198,0.00111316612195904,-0.38773957207808385,-0.2317140733490349,-0.26018709483872055,-0.41307299955565624,-0.5293675203165934,-0.26521822228061726,-0.256372896727693,-0.08478342144893658,0.0842841994533186,0.20045790284882506,0.0920666821883624,-0.1600621366060463,0.135469051851295,-0.47422685291440414,-0.29511417884614116,-0.7193935119301786,0.33582537275411234,-0.5525013605672175,0.15477751222595343,-0.3535818334815447,0.31554246898083477,0.16001861134844958,0.05946424359952748,0.3169194573798438,-0.2721319696858837,-0.29509337318031614,0.023267456473795467,-0.03603226862573174,0.3858500623694967,0.08760449688546512,-0.3439204614843835,-0.3514266569535743,-0.2122216294373845,0.5297698641020036,-0.04222366343923472,-0.21642502528819804,0.4626540383759519,-0.42062049140899993,-0.07958864387612781,-0.025501656908676694,0.23629628670915218,0.2175660544426802,0.07073808390086694,-0.16361705844056068,-0.4381989359510234,-0.03231092552026735,0.11042611547050643,-0.28883954954929897,0.034257815990813414,-0.14425871626266074,0.12763342007345652,-0.3866929076441356,0.20366709967348656,0.0374314105821766,0.07424783538970414,-0.09478473864236325,-0.17930326289313545,-0.18083055503283774,0.3578901206296385,-0.43635997780997693,0.37266548914466985,-0.48664470450887193,0.3896846664566546,-0.034112066745771975,0.13500844848780116,-0.16783683704337066,0.48095102575770304,-0.13630167097673818,0.24888437568646438,-0.006288166994719044,-0.3919828545427393,0.20973255174347133,0.3344603430614153,-0.27000330066013617,-0.27366874132108526,-0.06736284712440724,0.045200261261785175,0.3919681314043617,-0.25455254812890693,-0.43905483621420954,0.22198847980583425,-0.37262844043177196,-0.4407718638405652,-0.2767667282088011,-0.6053583319985837,-0.45197880009323493,-0.4372856389409989,0.3909464385828828,-0.04244375175843291,-0.47597722897087247,0.12061964541708721,-0.10829611742974443,0.19916918944967305,0.29504885570866135,0.26128915525508867,-0.1245063028347865,-0.44525719262393815,0.3427557820044405,0.10433847955309473,0.10969909565190229,0.270737948351332,0.1875568815295102,-0.006399120561182466,-0.2880158340362362,-0.07997140531994858,0.08542849410273952,-0.03726285604000872,-0.37578127151972945,0.37673303242910544,-0.29347602266066636,-0.14457834893225058,0.012760330632500285,-0.42851812863061994,0.3752210342070261,0.21268767185537174,0.3169269122140723,-0.23438842561979445,0.24496812474500054,0.2949553255669521,-0.2042560590942355,-0.06082610409603381,0.33372077585862925,0.15737633209868906,0.6337109675135509,-0.4319188396505159,0.41922619716788945,0.5422244140430325,0.39627294526967755,0.6158809579931296,0.09977605280686823,-0.16745353855892608,0.012894571157259544,0.47583047101266235,0.32681122443801197,0.16418918836378887,0.23967318585245576,0.020844685592695065,-0.050685794931409324,0.2747071283766381,-0.173011373818762,0.5064166908070663,0.5294970818048328,0.028488939482515425,0.47391907034699593,-0.3327278872640372,0.21108319561584318,-0.02589420654335837,-0.00004653727309424448,-0.4327613173786147,0.04077982532010033,-0.13990645577400215,-0.1881842466623577,-0.28935930497817886,0.47113704614255664,-0.3427414819685087,-0.1636133040047798,0.08348776422368027,-0.7211171357552963,-0.30507874888938963,-0.4975586734771761,-0.6783942175554541,0.19150650819397938,0.12697584105687854,-0.4078737197606837,0.24683415771073525,-0.37866603434766055,0.2195588795035114,-0.10160622268856756,0.0728314616665564,-0.6538466334855374,-0.8211183966380796,0.2872381996299697,-0.06967733763014906,-0.1766699962159204,0.01649983578954134,0.28118114733134175,-0.12932628970728305,-0.48834621643578097,0.21144392152266178,-0.519428623315478,0.39345954021920787,-0.5562934606717764,0.05331627483831722,0.3876602507957458,-0.37134680650856994,-0.30405466118919905,-0.4372450943745236,0.06008537935287346,0.18205826586327198,0.04563142312739105,0.5612405384082377,-0.06417472252494444,-0.46127824217883673,0.23180490966708683,-0.1287355214364686,0.28431669151635175,0.04795067563545165,-0.38195835771609726,0.3816661163321128,0.004588610381906249,-0.46533823351035136,-0.1300104136371003,0.1238867440686838,0.4257881313153633,-0.0828320559969448,-0.07464733106558939,-0.15115023491525573,-0.03965241270094125,-0.49771841595020433,-0.4409755446747084,-0.10228726517610505,-0.27303503702459647,0.0020551971139758035,-0.33052935822137725,-0.19304205670071842,0.39345553662114624,0.23331032243204547,0.5094127678658827,0.25762778987918344,0.17204510045051472,-0.20242190628999332,-0.4318996044241548,0.27820955555362237,-0.3390335794446372,0.15824113080831065,-0.374402881466624,0.43370126474740406,-0.24114461267221013,0.41010496434599986,0.478794916918369,0.5032716095835745,-0.008855803492313396,-0.3976486027945645,-0.05252086386374472,0.0740496902862355,-0.18525435459113238,0.15495633845923723,0.5539202158974645,0.5155601717195385,0.1638400676164014,-0.21878991831569694,-0.22106563422730396,-0.5721337588071705,-0.012807013977537734,0.5010592433581367,-0.3693648359892188,0.2056030745494533,0.7831871878546772,0.7541661016938535,0.8303060096186362,0.47217116953966687,-0.5505435586161399,0.33074067258917633,-0.8169772237826338,-0.1509930711984382,-0.4652138525858148,0.2886156600147472,-0.15085719276356405,-0.29150827923441364,0.9691703880388591,0.8516134303376269,1.0072231857647511,1.012582730803741,0.22311725626883885,-0.658753629675454,-0.17784863096937378,0.22240058297512916,0.03104559422760176,0.08050122599867364,0.1424833101891397,-0.2532500750110431,0.6593688103872805,0.15694470992133847,-0.13767616063081933,0.3964865284455236,0.3443127106727464,0.31484881292199207,-0.2669743465365435,-0.4692010749502948,0.19402347794948907,0.329334448921065,-0.2546223087605444,-0.03521439302986593,0.01572438708872349,0.1980306028245368,0.11778089913934456,0.027982758569156236,0.021943528783878646,0.7217576103526792,0.15334261323806977,0.34417646860853657,-0.5234743202398718,0.1293152274191392,-0.31280304622445937,0.20755585932586257,-0.5030925966074046,-0.5591937796649253,0.08046739141806147,-0.12360465174779738,0.38896705264789166,0.3004931820880703,0.16760334686734663,0.3112630477161976,0.2517138609990368,-0.29565024329482603,-0.27574227103574456,-0.4740223267794316,-0.23875655721751426,0.10005222569606556,-0.4349260224728807,-0.13535650319710332,0.5738447030807123,0.02320285047812355,0.09996819093065959,0.1705380213953446,0.184705710621846,0.11322064510267733,-0.13112118147227225,0.39763268252828277,0.20208685394858858,0.17355951420576418,0.36948257623702613,-0.015601526676779352,0.40841970974647507,0.5380099432471324,-0.07019951080956174,-0.39125860302718485,0.1972832321445613,-0.16940176834679682,0.30891992983285516,-0.13278194066026408,0.14174385641266288,0.03656695081958218,0.2917591081617976,0.6002315167003547,0.3151654324864071,-0.3143416976348489,0.18465194944240218,-0.40574123422708813,-0.014123674554545128,0.447849919534638],"bias":-0.07535078188279634},{"weights":[0.2965292413310378,0.25860795659757946,-0.28342041900311155,0.20778565685835002,0.01516247430394295,0.7368044188193621,0.1838860732527745,0.5223249347467686,-0.2633121541978361,0.2649804914631733,-0.3430070444301294,-0.34143553474197175,-0.30937919450397716,0.09237664874177094,-0.5135714740754498,-0.1465485890713302,-0.17811140088351649,0.3045941543799696,0.8693569737156164,0.16425399167977162,0.22668447747015663,-0.17229391085982404,-0.3891344763984082,0.4004945059440621,-0.030302161687290288,0.1432753439847087,-0.12575540889224793,0.07808051037895605,0.3055560769012185,0.11346783483939196,0.21472558731542363,0.45503119846199286,-0.216643177246928,0.33045567943979187,-0.4196478569011825,0.2840204440807317,0.01341306969312298,-0.33640233410740505,0.4452746356650366,-0.25506709994072896,-0.17495699165885892,0.1201464481411495,0.0034388068046496056,-0.22434780513101918,-0.1913879670160807,0.42757079091853906,-0.16572579151526257,0.2192503181408624,-0.3681899629681111,-0.18087031172575696,-0.3839959515981467,-0.40801535273191947,-0.2956096346185727,0.6271494526101613,0.5846623626059256,-0.3379721849152582,0.4603191501524266,-0.012371872876312931,0.10472382834789358,0.17736835495143746,-0.15683963743369977,0.14490472147421227,0.012363008784264785,-0.2881771804245045,0.5787530895543924,0.998692997230949,-0.18165083221731998,0.08304771105888815,-0.3969298428163962,-0.13587856063758166,-0.39846552120791107,-0.07048353518647314,-0.15388905146055773,-0.16744383008185884,-0.37905391459930826,-0.00036800945144395365,0.8665494356499231,0.11151576782106463,-0.3219918736045702,-0.14658155387848956,0.12775735225473536,-0.45899755081054533,0.3219888408466367,0.38424558141255977,0.24874239853561825,-0.2029391072498885,0.13507218809565175,0.20032656970574844,1.2160259632027839,0.34897961523534543,-0.21608310452382717,0.18502329696219796,-0.11581966056061206,0.12061419594175835,0.015143211682952615,-0.4313427759129207,-0.14039038738918266,-0.13793414589675806,0.7293767281319234,0.8237924140580564,-0.016974956746837477,0.12514162062157305,0.5758784148493203,0.4476683431934529,0.2554165059022188,-0.21304096516650234,-0.07363268897068613,-0.3746978734191537,0.03785606207289221,0.27626756654761764,-0.026919714282592332,0.12929013863198358,0.37687352750342884,-0.19245758090428236,-0.2652934067860032,-0.33763405722401746,-0.0886919038241171,-0.3508789544973832,-0.28240997590005024,-0.42361655843969015,-0.23980928363632034,0.041115410712337354,0.3516825412948,0.5036200070067935,-0.1038228545299562,0.37844665698117025,0.4305701544977689,0.18562160980585857,0.45022624214651696,-0.3424703980329005,-0.34473075778852813,0.3416712784402956,0.3756318871651377,-0.05175971012969293,0.19896529586302497,0.44491258493127017,0.3823904376218593,0.2437910029409744,0.18211895420071522,0.23261665785807473,0.18019348345190447,0.2440680013539537,-0.0007961642044641519,-0.2998501100838411,-0.09285102184142002,0.4332065563115572,0.26296466421175635,0.24005700805119878,0.36477805358545184,-0.3710769598737282,-0.1872035457685354,0.31585079473067423,0.17055881858675584,-0.4362417918753293,-0.26757677214276193,0.3128898280541767,-0.0015215615158654927,0.47281468219551304,-0.39309712673926006,-0.3994836672547573,-0.17779949674960255,0.053294208530226685,-0.3081476186488988,0.186720770525885,-0.37121147639694185,0.04151129387319432,0.4307467897924866,-0.39788816053457154,-0.15802976048153894,0.22256416552645214,0.4124849189825746,-0.22514140854164805,-0.5061541678826504,0.016926301378540374,-0.06984610413570068,0.20001386907235702,0.5410019387780448,-0.3077287379344878,-0.08337670049997636,0.11769868199807924,-0.2447956614256004,-0.23724118738495456,0.353888214311718,-0.4150993675322056,-0.25998920433009637,0.12444669441065694,0.039093416588064346,0.4573562765679414,0.20157411972915124,0.6079539355774775,0.4739522545764817,0.2294602432403404,0.16749997490007087,-0.18017121542022022,-0.4107399770291405,0.3197374870835436,0.357340339694025,0.4347395700259216,0.1897453176826617,0.24841990749165874,0.3712824382397473,-0.24253193281790883,0.2977478026542377,-0.19935655846773762,-0.39221152851297175,-0.23228912865801626,-0.28524149352712636,0.26872640178010976,0.4181500906894338,-0.0037464035843557545,-0.32211844373927956,0.24548209028685164,0.5084343746999986,0.29202619095086146,-0.3687024796757605,-0.4507110712438217,-0.11294688088887299,0.3035247573061375,0.49168520189615844,-0.28011102026315227,0.07371983050994729,0.06858392670067981,0.2372989169084671,0.12680358316597717,0.375824761780833,-0.30456061362307735,-0.20198237483819423,-0.1041788031377592,-0.254854950026905,0.4015443195077538,-0.5066059757485588,0.06194125192982529,-0.19802398187160505,-0.3523454295225294,0.005269912992442887,0.13461387861180532,-0.17907472341701217,-0.20188784527835738,0.308144377305558,-0.02715347277381347,-0.28262759618642297,-0.08777860852592503,-0.5312638548971198,0.16897539482198248,-0.3235387143728339,0.41195139024194494,0.02810543652567011,-0.4426147093165397,0.41611191728524566,-0.04904711728589461,-0.17398104441487408,0.09473266085562437,0.4138280358271027,0.09723540988641362,0.11078446738586686,-0.3852639391877188,-0.15545064259596153,0.39452081679399764,0.06784391159094476,0.29734369635855645,-0.1615050544946832,0.03380745092111733,0.4814105850199796,0.27040304809495125,-0.1476977765795791,0.20505918985850988,-0.40855945632211554,-0.15215625221256876,0.36944743194139595,-0.27911873113146485,-0.5155754538679186,0.35110863498048656,0.25639634858836374,0.0771847630048746,-0.05293630437270583,0.4515483825015425,-0.3631490355835204,0.14322055009235002,-0.08519715662813376,0.498964038132411,0.4020101764765949,0.1292123031519456,0.48639656858395014,0.049696143333418194,-0.03493674681727806,-0.034995334831951386,0.35080094534726325,0.30811945208254177,-0.41595427145510905,-0.030138291839984597,-0.3544298922991968,0.055188050877406816,-0.014997412656557164,-0.43978281583319656,0.1952824802447185,-0.42683036572114647,-0.39575546992623417,-0.23320288262056524,-0.38304243946433736,-0.3429714765916023,-0.04869600762604851,-0.2546660598052279,-0.45222530247936155,0.11741811776168493,-0.09261646170959864,0.1102642954814241,0.4983728092345473,-0.198925810203399,0.10204492229429843,0.14793385129111117,-0.2693242774510512,0.4544674246464541,0.14220675601683222,-0.6090271140422722,-0.5887771681548775,-0.09122139042995289,0.280935512643152,0.27756201010778364,0.42861541735817743,-0.5672358210733859,0.30889896921468807,-0.14349421370099416,-0.3096212110006903,-0.0038805893708827696,0.0750588796202353,-0.11596197652791682,0.14523257108946003,-0.5080424305631092,-0.3831475808573444,0.13593967481491534,-0.47825322586672814,-0.3417271257596972,0.024472744003746768,0.19175856765921717,-0.31487768434393126,0.1619984833538477,0.0960493761070486,0.06826332065092793,0.34798365037030404,-0.23459758559094943,-0.6898491885605147,0.1571195905323022,-0.45049388810454416,-0.7881388317568111,0.24148341764479678,-0.13085932104695427,0.26713943073161855,-0.0065230810509488545,-0.32319063871507303,-0.24314975234206088,-0.44418308329071615,0.10876179016929531,0.06502323534605355,0.16714994734199573,-0.2417878891086139,0.16996879678278304,-0.1476046494453981,-0.2000172316364887,0.32567679437799846,-0.4220218152319688,-0.14363404526790913,0.1033824529174187,-0.16383009347784083,-0.2113730611285571,-0.25533034548566685,0.8054936639616064,-0.10220638968769949,-0.17112495576513342,-0.3916730090437926,0.057219249189570616,0.20966690795238538,0.10438078544783876,0.2685558725876902,-0.16087516434316632,-0.4306097303549587,0.565685395133369,0.3182133398038309,-0.056163079105685944,0.08705002072186611,-0.3693317327563297,-0.21334464164726077,-0.46320364073910014,0.028807731106274916,0.34525818478658205,-0.4420566319556122,0.46587046625145523,0.37397837324082084,0.3511959800898294,0.28525361572355695,-0.46811883560335327,-0.2221622204423739,-0.3075565515316646,-0.18217648651778934,0.4935867349991978,0.33252031795837594,-0.33816824407158846,0.17309567448465965,0.3934052520712564,0.3208297537831488,0.3758217922366992,-0.21561233720188083,-0.3623747897009097,-0.5316691222738161,-0.3882064183674429,-0.38699988575033206,-0.14123124277627525,-0.24133154976788812,0.0654169949339965,0.24856238724497712,-0.3922240908375486,-0.01419871432218457,0.474470963072023,-0.25992916573457364,0.2916657077384852,-0.5976939839808559,-0.21915426619097775,0.2964404636809803,0.04711502057335592,0.296194565735846,-0.373925348527043,0.11478099181273989,-0.4553317986110232,0.3253766770040231,-0.5318340981376567,-0.21590235870194802,-0.5225931124806527,-0.26563953356638814,-0.006070270747737212,-0.5585189218432155,0.17551282953672537,0.39033868435661173,0.3448560631914307],"bias":-0.017976373332492773},{"weights":[0.40488907406782615,0.1551637426189999,-0.20770911663197386,-0.3657035952805268,-0.054925421570108775,-0.16108533690278928,-0.04196544267188929,-0.22941970275928877,0.16608737980822452,0.32103088653960105,0.30145331493515615,0.3401502869732518,-0.04840003893166534,-0.42556158195635957,-0.3234676542314009,0.16997481324019437,-0.022561816049329126,-0.241694156163968,0.36098247144983037,0.587383744042288,0.5903872541405286,-0.32231244547467996,0.45321030563880865,0.21396910081583462,0.042387191573446316,0.3046432561308721,-0.09592065196800276,0.16047018296312093,0.48852258161888024,0.41663216351875787,0.5229002575235517,0.65719260786241,0.05348697711147274,0.14006548566409163,0.2553311619160735,-0.011304608027653052,0.3767291312388231,0.02720602919729118,-0.04079061252992235,-0.02001894266592698,0.0674780975470338,0.6531252659143858,0.596302455641041,-0.09569249755544883,-0.034094598329002274,-0.3067345480274181,0.26456343615784533,-0.08831298266447449,0.345157759416799,0.3950320471533415,-0.23882978414525852,0.009740681529346507,0.3961487324276744,0.39681989788801625,0.40731175430458055,0.4242032762498033,0.04869495059435448,0.4229007819093033,0.19191623311402548,-0.3938485588976246,-0.4459891188360363,0.16948837909189768,0.24282193211462447,-0.4573144596245274,-0.37579239509513884,-0.10342307692100393,0.1364073081017186,0.1790551874925275,-0.2806432805444551,-0.34953459390487135,0.2750927609782308,0.01340412764203049,0.1839359285773001,-0.4139072052401209,0.23795008402400294,0.27016577851880147,0.3148142352863479,0.1046330521317538,0.2104602495370675,0.3086658572297803,-0.006665043196692834,0.028518316938496876,0.08799510253533553,0.3119066759084697,0.48228115896544566,-0.11935279024882516,0.30088982556938365,0.2554369663468143,0.0965571339415331,0.017055327863670824,0.0965624669216246,0.2808587879003239,0.4967862606045357,0.13387775427609805,0.543528896714742,-0.16259647561166465,-0.25229071066407466,0.13134530165917344,-0.2615777255294907,-0.17936136843591344,0.6490383694715526,-0.04852466873175939,-0.1814141845394757,0.5398843717754869,-0.39096708410010667,-0.31802452344097587,0.2226219922632974,0.11314339680082365,-0.026742488789446087,0.49487875930368036,-0.25018536699713523,-0.11851283537040348,-0.045067105364195115,0.33054728428341257,0.4775965068467393,-0.011494898338526262,-0.06918396079272146,-0.3686714995794804,-0.09629514085987835,0.4243132840047246,0.1572971460825362,0.32446687271820196,-0.35815172510937177,-0.0057465260978026384,0.20528017743392557,-0.2153072272289425,-0.29522150249281304,0.1710340609517918,0.21707236502712104,0.3034940362403133,0.120390087118825,-0.469489323638381,-0.30975351194724715,-0.15222847828535965,0.22886522533270137,0.412159590744454,0.07271823037335612,0.129769504113505,-0.2929242181908996,0.4114982373541474,0.47931545179488716,0.21134145547928088,-0.3125551733901757,0.4080000118587827,-0.40977127825788046,0.5187580948853693,-0.23757244981720405,-0.2410587057031233,-0.06448663294109458,0.19609615825775809,-0.06679205639582095,-0.20177449886285442,-0.3389221882611675,-0.32755266687042756,0.2008950246607227,0.10998620070794285,-0.03547176345649769,-0.3158605260015959,-0.4822472804525114,0.18537970255176645,-0.1994278930080625,0.2131683309412231,-0.12743722964261797,-0.1385089607807018,0.09805106855279708,-0.409798996208044,-0.261154739569247,0.4993957874596164,0.1952341651308344,-0.09523724837768639,-0.0184711470976175,0.08035481994583228,0.41186990849343225,0.2593926925167133,-0.24034737618878985,0.43231261977468627,0.3922903534393243,0.048484666892216775,0.3216876002906966,0.20223092798190176,0.17381478093403288,-0.2596950432381083,-0.23393253065290334,0.025981015882282008,0.4589252108155734,-0.20080979356608594,-0.299002330883139,-0.00022684149546326095,0.4602919741655938,0.15195745012106535,-0.17820516279320528,0.43403797468568744,0.1730650639616943,-0.374767292584893,-0.03674130862909224,-0.053285291729208484,-0.25244925025043086,0.27493418266033415,0.2182192311833071,0.20527283592284715,0.417120840383167,-0.0642839113100345,0.15230160566143755,-0.37494714979811505,-0.40572994598664747,-0.2623788287093466,0.025204404979772606,-0.018348082004546542,-0.1368748570436258,-0.35725888453384086,0.09152329208868126,-0.16797702091997344,0.4762492392536743,-0.10208651932385522,0.12591567972282694,-0.3505973970957163,-0.17816377753991336,-0.06292623035234007,0.23255263415406213,-0.05414242377729136,0.03685947751634085,0.2662919246679001,0.5062033113537444,-0.2051425514650633,0.09036967092136335,-0.27736692104293464,-0.3153016919451232,-0.4144869540743954,0.294409487482736,0.5183256291882765,-0.3257973084445793,0.2600160000561425,0.02391490679061073,-0.23907209534750537,-0.2568976096490176,-0.4221933307002921,0.05860601244165809,0.4108133863579524,0.3788887530487963,-0.2942913783760852,0.2262233823752889,-0.2731696980689737,-0.19845366953548269,-0.12063218304576603,-0.20891052657256975,-0.33956705065813275,-0.058605605172424656,-0.11517332197123528,0.1074374106869489,-0.23417428055806067,-0.4356151114264525,-0.0542312416974946,-0.22241422115750806,0.31342948051224684,0.45159800623867,-0.009262885231027234,0.17785370272122886,0.29704940639063737,0.16201435575371842,-0.3324559501476208,-0.21839313812505864,-0.14470735945261434,-0.07683598363754705,-0.22462887969654738,0.2301453281555627,0.25548748359401147,-0.3762437674758556,0.5114239545833612,-0.3833004337357366,0.17521929471861783,-0.03541633946180721,-0.3359944475481851,0.4056310288865406,-0.23817560793267709,-0.4738899946366293,0.33378309052795163,0.08251426632042586,0.11999999497915301,-0.057740844976145705,0.11123725391813463,0.36134068335209807,0.07317779876476241,0.49771844843554475,-0.07662231992441078,-0.1411632581886296,0.28528645341820624,0.17498767624335923,0.3114715727881608,-0.4689190130052462,0.4466807644356613,0.037743661335856146,-0.19057124349695123,-0.19117710036520774,-0.21066834876153726,-0.08882303324782398,-0.03678730164735969,-0.14526510635588055,-0.04323805231898407,-0.29651422095517416,-0.17241065390621066,-0.2600493487479622,0.12934324119116433,-0.2015155237502657,0.2129850765899373,-0.29673805963897076,0.44478691773644474,0.1460377340354535,-0.5581690636193298,0.1741205628043754,0.18815050376297227,-0.22204807087332687,-0.10925921184175579,0.3800566567933371,0.27867958066297843,0.04715546382640157,0.409402060204446,0.20110063555980764,-0.03758407402334995,-0.5235494827846816,0.2875732205972904,-0.4744662260536757,-0.2213642210054897,0.4769011720419571,0.4070661059058072,0.3737764759648743,0.17006379436311822,-0.01587359813929765,0.6289741078662096,0.5222844552394352,0.0116678388305062,-0.04044431472813652,-0.1416684125750188,-0.46449615666351807,-0.20683690674960642,-0.37856821332919266,-0.3124267988875005,0.34861263772083767,0.10879433861946826,-0.02527510238356516,-0.32424443625023525,-0.039950138167407244,0.1410429975925008,0.05930087340022197,0.01454729823079818,0.31719055120483414,-0.23456289659695376,0.4510804770338385,-0.42556020532084265,-0.14824116095590562,-0.27670006761039345,0.014430234456488614,0.169554647216051,-0.34162743158090975,0.17255091881766954,-0.03931586775455184,-0.13288194983409388,0.10341840746787466,0.06823525638322495,-0.45485941826405807,0.2143185542376265,0.4393691254962564,-0.220507356788194,0.1755980216770485,-0.40451710091594417,0.2549243376613095,-0.4388547637180485,0.215727028736369,0.4678362239579071,-0.2041800071277428,0.08699071191025624,0.015905348547561277,0.3380095098862739,0.45904119215943084,-0.372998755717855,0.0758579973399303,0.39942340210585114,-0.15438892191925965,-0.389445053908273,-0.37899708941909077,0.47788512982790876,-0.21021053599081768,-0.3572676962873986,0.28084729333519537,0.15760738344119768,0.16736610463663534,-0.3166840618433318,0.4890478949423318,-0.24531743154324245,-0.3211348829032429,0.24429196574439735,-0.19757860663631652,0.20534030178578055,-0.19521981122403523,0.18778867228786963,0.27882400886571496,0.393040745933691,0.22707743646947517,0.3288525656664116,0.4473736668089874,0.35504266700048026,0.14511811376137518,-0.23303414314709572,0.4449855524199252,0.03942489042789681,-0.025389514539329573,0.31366706081933704,0.3464667061059449,0.01830650537749393,0.3988224990867821,-0.05553977188998007,0.5359776902841096,-0.012564955180737964,0.09411069430001591,0.2674054692450485,0.2000162774597478,0.21885422524345038,0.37328321032192346,0.10089233138483529,0.45568444308890693,0.34134045861788775,0.39655794191458715,0.39160394778925073,0.07564308480186586,0.5069185871145137,-0.052761583254370165,0.2910482308122749,-0.17386681149016023,-0.30454053603678805,-0.11201323578236437,0.04609288919174514,-0.3722776727181256,0.2912388867743894],"bias":0.21809953581020905},{"weights":[-0.00328447210135533,0.2411059155333725,-0.4549963428730705,0.4026940543104315,-0.29139924215172164,-0.2612491924964874,-0.3224235633991082,-0.2127925865992321,-0.7472239703164967,-0.4370043074864563,0.408462356159499,0.39799572838699626,0.2814462171196166,-0.018840931683240036,0.5490673611225793,-0.14313465551845858,0.41726609567926415,-0.09291216100897366,-0.4675216519855376,0.16005121072492823,-0.0704194618309695,0.025813597895459155,0.06768383567588125,0.4282390823122881,-0.12541290866248314,0.47489218562228647,-0.050635975248002014,0.23310916045092836,-0.054006902766403186,0.07382650874251999,0.39858461516406424,-0.24767842836405998,-0.37383641102261445,0.023561755982618702,0.46072162354063084,0.4306066817041343,-0.24289496388730844,0.007176503369987036,0.10648661568027935,-0.4372181530526423,-0.3971847340691781,-0.056928384229577765,-0.013115632711719383,0.36443829969927943,0.00956110924772637,0.05125470193513523,-0.31903049506286213,0.06987025376944703,0.5081891898868849,0.48130064036258763,-0.3302779404202857,0.13796205700591857,0.07411815118199319,-0.6150012546595865,0.4195497894956391,0.02235878134428566,0.1849202080859204,-0.28693248703482194,-0.3211697181554901,-0.37031768206909293,0.4647030523604709,0.41409845824690256,-0.1755535766936802,0.024057990093844454,-0.6235633492265967,-0.32961933779564734,0.0019829493812505254,-0.06037334114239936,-0.019269517038613106,0.03220058498088448,0.15227314146529808,-0.02923741492974866,0.3235675373382512,0.324051538056237,0.14100818920159977,-0.6828986787226543,0.07121144755680854,0.4387428134591995,0.6268352314563269,-0.0943654237631055,-0.021621750978253508,-0.1194238391436693,-0.44225958801037996,0.22584044333140585,-0.28993884929280783,0.012280675009613738,0.039268092954494974,-0.1327182993555864,-0.1299277636299357,0.5492181807725935,0.22770308106301132,0.2087219003505435,0.21381377201362833,-0.20318973630053783,-0.08408742861355596,0.050759426456796125,0.4388369699357883,-0.49776057522422773,0.18227669418097056,-0.02491215232576389,0.5577118470717343,0.23412700371820283,0.2024491493676521,0.6234227481412874,0.24118399256358763,-0.16947180129112485,0.21751360141094325,-0.04758243084238353,-0.35222124845285513,-0.1146800907510459,-0.1417103775535337,0.1573854733155183,-0.12482082279681818,-0.27143248691183236,-0.585952976870762,-0.33556336400269166,-0.28179129096002437,0.15263137664389326,0.1506656200894617,0.2821302969281646,0.31653911023619125,0.5849612985316299,0.4429428441789086,0.3491042472753904,-0.4259127667874898,0.2681820647117597,-0.25609874414488987,-0.0698691845472931,-0.23431274521640724,0.2607102403950921,0.45172323976359274,-0.3095851904982557,0.6174291961837909,0.08815840119800103,0.2596245433738513,0.2672525305251921,0.06116853875245855,0.5681075279219928,0.22195905518439932,0.6190770113914377,0.23668569309525048,0.5278353580536533,0.43392330095093684,0.1782898095910676,0.0023553164406751857,0.5235452779462281,0.17485725065911153,-0.2914487225011027,-0.2190333876661421,0.34930060594941076,0.11813561693053404,-0.28383227601378874,-0.48952931854389,0.37089617583224477,0.2868993839338018,-0.109996090990213,0.3939749137536132,0.39450256212993384,0.18617307386852183,-0.19465374008210581,0.11852985556466072,0.5040200795821244,0.30272939399117976,-0.16936467169288288,-0.3958138121917198,-0.29781759107527483,0.22446636892722016,-0.35319315112704575,0.053839351016895666,0.2039918022947499,0.14845653469588146,0.513620078695568,-0.09344091431230635,-0.15870014020887335,0.04209988448461096,-0.31886302447380604,-0.15869097774391244,0.21877598465299702,0.30095945153613596,-0.06491059926201503,-0.2634569529058856,-0.30367291572992455,0.5048528219919153,0.5708558904460188,-0.28812786608779556,-0.44176295504117963,-0.45533193278958284,0.33966914157585665,0.041144731989947045,-0.08852339836222668,-0.3632586251952906,0.2254285462899342,-0.4283726072346839,0.2421556857823314,0.24684768294266252,-0.19710789048772698,-0.034670091017257675,0.08308569269134873,0.40120387259429185,0.7030874523295825,-0.01599868052255488,0.053846691835000494,0.24240993825017987,0.5135388561186337,-0.24707846096036762,0.29630445450846055,0.46639959206119136,-0.24138774455055684,-0.2048678045320364,0.32419021028586165,-0.08000900399449161,0.7010536820312463,0.44313206082495626,0.10723807877628644,0.7829311082359195,-0.2781744494320416,0.38262939759133013,0.32531713098324916,0.30021439190964727,0.3256371027603118,0.4252650625045311,0.11657417484196224,0.7859714867674887,0.6330750485876759,0.1816696519344982,0.33847502045206573,0.14581676378649908,0.025885434484954097,0.4641793061703346,-0.27435825586817886,0.8504288669951714,0.4285538165703187,0.6162967690686626,0.49185632756033754,-0.1165583173346882,-0.27855894621285054,-0.5484544417671494,-0.46043567930945206,-0.0035421452432818873,0.3441941709792396,0.3844712390275634,-0.22988690362988756,0.28489671363702695,0.9872645600584399,0.7239818749741407,0.34640028710408693,0.46031030892623614,-0.07477005596062834,-0.5925435144594412,-0.4240072221280233,-0.08535030658154814,-0.057545422577331175,-0.055048471444471565,0.49901334389864266,0.3883062479266255,-0.04393300207973615,-0.20670819616365455,-0.23522463763317691,0.3043231043311675,-0.30274461239548706,-0.29308038115639645,0.1314419170315663,-0.33763180884067856,-0.20587354323797466,-0.13496774081579382,0.2702390279845153,-0.22570222148022812,-0.15828527320911534,-0.4528912942567626,-0.1831442967844404,-0.1220232234039052,-0.37969979286109434,-0.0522894143612972,0.33858992589411563,0.28349518496399,0.13642505669257582,0.20512194605970094,0.5252662598449178,-0.12407541870909768,0.24881118193617774,0.2073466384886571,-0.35647112052137714,0.48804635433564564,-0.3619467639564119,0.07030685537245165,0.06052856530197239,-0.31675135503592855,0.5015976249683873,-0.48718482324893075,-0.18528740131893495,0.3396287408860014,-0.28656466449510115,-0.1492260307889971,0.2262949367862311,-0.02197282851146557,-0.25726930310811014,-0.3510290642124422,-0.0652547710162947,-0.26071522083128057,0.13772782811923254,-0.13206542687115463,0.4231024786126681,-0.05301081490455143,0.2594456020853075,-0.3744101312627122,0.3459101589702876,-0.15039230358912498,-0.4652085713006213,-0.5548785374216777,0.28485870521101886,0.1871180319877334,0.4656008850204126,0.07457249065440534,-0.2886545666540469,0.20798187644778593,0.22648462952476814,-0.1069790353821916,0.053344407045010124,-0.1304280696910797,-0.5483536428145604,0.11139776475728032,-0.05017659788278998,0.04091662745399804,-0.2054407196039767,-0.4209508224299485,0.31114688206352104,-0.19431410422364162,-0.17118074440745515,-0.09783262374004031,-0.07545052388874676,-0.4429975761652329,-0.2610340158988593,-0.1934916099986305,-0.20174469692385208,0.14893379448364627,-0.43429117020966845,-0.4116033314438576,-0.03409119859242432,0.03236772884861895,0.12363255159437771,-0.10510403987396874,-0.0129923720293311,0.2968333047794873,-0.05729207519821038,-0.5430449659176152,-0.8014076745221189,-0.07555329501009744,-0.17059566748388066,-0.269562642758776,-0.37212093263614565,0.45447851516617205,0.0524111177363959,0.42161116047291586,-0.2273739815529622,0.5427746424970467,0.26213562697828385,0.13843953762578728,-0.4013860067895159,0.07684487846140237,0.07512331758400823,0.32515360272150684,0.189510101132436,0.3188553600325125,0.5286242283393936,0.15315947435021315,0.5432819341070833,-0.13735443462534783,0.2264760336327515,0.28236625336616067,0.21526438181557822,-0.18630964485330778,-0.13760427476140777,-0.5182293878366961,-0.4996819304220552,-0.2865483308477252,-0.409148447221591,-0.4178508195810549,-0.29642887794931055,0.04038453184965112,0.2685783272222236,-0.12051776370462336,-0.0034841519405498364,-0.3308030452045979,0.2063598481732407,-0.36339121349442166,-0.027079977688181454,-0.6530751796565689,-1.1225573910070707,-0.34931895509981725,0.48712663746341583,0.29944203284013887,0.21893919854930408,0.17827533092189618,0.3015838305906643,-0.014798737173830212,0.16174440880655516,-0.13488146423778283,-0.4607061889534657,-0.7257784815121343,-1.054667915181041,-0.336430561953748,0.21386036327965996,0.33241862016678964,-0.026240758567930247,0.011462772384874954,-0.10502371223743318,-0.08615602380160113,0.34513716986163523,0.4220874585409134,-0.5489657249322057,-0.28968089182246676,-0.13690110646143797,-0.027879364899705255,0.6098784375599735,0.24922301583632273,0.058976460967709796,-0.09635276464095774,0.13287240787292343,-0.4396685390402798,0.11449381880240356,0.23550974893762794,0.17949180365902045,0.3648347548126663,0.07520518055550786,0.6200134310421838,0.5696976547701539,0.6565152967466745,0.23364707960517808,-0.27932892163712664,0.2600187026321869,0.30976327406223547,0.06338043213797902],"bias":0.7366059019185943},{"weights":[-0.4577809084257691,0.20140720211853347,0.14978240351866245,0.5107921974246801,-0.22478452953983383,-0.46694651599298287,0.1962721949735366,0.1815342013296832,-0.15708204549417268,0.16485983377609084,-0.1159488816882917,0.3661320455552896,0.020910626969785674,0.19880368363783646,-0.25641623274629066,-0.2049246013900542,0.15871406609638253,-0.04772501120893451,-0.1993053571557199,0.21796882639926551,-0.46202230142637923,0.4770433562891627,0.2155965779303446,-0.26825044776475276,-0.36098110177789494,0.04100831238759607,0.057417175842220405,-0.31983683745131075,0.2976196284886249,0.3039752603116233,-0.15699109270485964,0.09991569231489023,0.4042137841032071,-0.39732656308134917,-0.1387718757527107,-0.10975374558341962,0.3558149419512851,-0.2488622580302145,0.42395657492490385,-0.4759721596193308,-0.4178877629695769,0.15851916981916242,0.46272511961496193,0.48302183278136007,0.47372760395302854,-0.10045558834836997,-0.30281949294828425,0.45503186674017665,0.28401140480870996,-0.41507919675738114,0.09192350003165163,-0.3277334572485518,0.4780476576213172,0.17986868360483813,0.4174833458056226,0.6862259054492701,-0.32561565752259497,0.26871021750093865,-0.050435023805211365,-0.038595780901074205,0.3187241051336737,-0.00423594049805277,0.48014015312731484,0.4570439677344801,0.22816768472609752,-0.10973721957606622,0.81430844491881,0.19059054489663937,0.6469819579059353,-0.056427488263601486,-0.4971975265187998,0.4374873682989178,0.11760926604926536,-0.03286239155708784,-0.2816952440600215,0.8143420422610379,0.21998802737348594,0.6573911745915724,0.47154615609873546,0.8392118011222599,0.48422017479600166,-0.16961074183307812,-0.4233816486689184,-0.4108085442432575,-0.014166038141664493,-0.23382481936161714,0.045944495725167324,0.28391667725546105,0.036791736236915916,-0.13304405597066213,-0.0657586630412232,0.1931244230352329,-0.19805700405469684,-0.5002015306967962,0.2749754788832103,-0.18172221498882896,0.017346610388173297,0.3312756719603295,-0.41794148318530716,0.39798302237888356,0.24857192328915123,-0.20547205970360927,-0.05533105423439638,-0.059374873033663206,-0.0919563803285464,0.3273909360633553,0.30171423171115996,0.33504449154689253,0.04411495039896101,0.4135349715558416,-0.09955532365580472,0.10725831109488256,0.2352869146481646,-0.20032216416308635,0.24644268279868192,-0.2430491283029207,-0.05294452786880656,-0.1995077952388835,0.173539665753799,-0.0527839891498054,-0.261473155120232,0.3931494341755999,0.06389635227259606,-0.13244399712649502,-0.12098105815916725,-0.26626058497223937,0.12640758057020646,0.15505113602647194,0.43602236595017924,0.1579605988403917,-0.3407145771015967,0.39234520864149713,0.2724609688720475,0.3458634224214808,0.3960921666314502,-0.13775766536039552,0.008946889761192579,-0.42853504017664823,0.1353807757270406,-0.42367358247406023,0.430591111391408,-0.46737583866100396,0.21265681331960426,-0.47212879743420083,-0.4280191519627428,-0.16536427212208252,-0.3618663152937717,-0.30357285587960886,0.38526493605238804,-0.13544816771168544,0.37223034069831634,0.2457047888522845,-0.19463615256873185,-0.34253932928423697,0.16623974703433705,0.5159810724473369,0.46966036316518095,-0.1240363464523415,0.1039340422445735,0.46349361057645544,0.22853149264980704,0.47069643182583215,0.02678106441663585,0.3525704717963907,-0.19885481636602031,-0.4396845641490301,0.2144589955471443,-0.4348245746159495,0.3643732826550014,0.0862985698075002,-0.11766372202786592,-0.1346592801606481,0.41373012980907176,-0.23550404173903475,0.2992938842563618,0.47294722815751467,-0.21512842782315403,-0.3986374535669402,-0.20868633690831928,-0.47939104054854675,0.45528591759251696,-0.15543887331667608,0.30756128788026527,-0.1417628945028457,0.26137135603304384,-0.4278931773136847,-0.48973062259320893,-0.2826756338021052,0.23246416732428266,0.33788116344124,-0.3655826870854519,0.054346228852511315,-0.2659232128315753,0.4800064941747016,-0.04008490813119308,0.3704332218595742,-0.38017102630903116,-0.15812937127094465,-0.22761609921065315,-0.05372805854298488,-0.021554862046463133,0.45747977585816013,-0.001896433404691575,0.5000673416282445,-0.3335758148721167,-0.35116500241674886,0.3683284987056029,0.23217030977549236,-0.06759334084265517,0.130106445430616,-0.3790037069304237,-0.40529463679080274,-0.1799379390452202,-0.2981140409778001,0.4625002577471939,0.42084423846316055,-0.3740525873615425,-0.26464090588700034,0.07821501169803172,0.16637050596608566,-0.001080944935587882,0.04455658804471164,-0.2584666025094508,0.11237022041959942,-0.14676800150744787,0.4408171774890495,0.303311469624139,-0.4307530602846389,0.42359193928156175,0.23483192772814146,-0.044802323180690676,-0.17100544051621253,-0.33575491959378045,0.09162048023484183,0.0319240276603481,-0.3927549785370886,0.19808004635598644,0.4890252943970848,-0.38555060620901893,-0.08746552293355667,0.38480586458212385,-0.12159115290537889,0.28075119352248334,0.38070078932562945,0.4569512752637973,-0.09076172863312622,0.10478696019834809,-0.03789745360160001,0.2366903287700283,0.05902951622576833,-0.2861835366627527,-0.37482521448865885,-0.0741995627766119,-0.13546484982130774,-0.09612001952701706,-0.2196963923610611,0.3368432151724326,-0.12206983733334499,0.43132859355431685,0.09875291093574211,-0.15668179273600108,0.13976814946791846,0.10852858733917228,-0.24826170974566833,0.36564425637115033,-0.087466316529388,0.41833851804319977,-0.40557219896187574,0.2525696146799217,-0.04236305260272609,-0.2233843518661119,0.13898467245032242,0.1815139417838844,0.38510704695165343,-0.18697892865806465,0.15646164825468764,-0.20864606430682747,0.39666026776826385,-0.20177975099123027,0.3274216506879943,-0.4543179876554516,-0.1648099818109668,-0.34249881538653737,-0.19258064673506084,-0.1915118625904824,0.38225868163701326,-0.03289894941232393,0.14014113664191713,0.3979897041865154,-0.16938186642871303,-0.16540977901938347,0.281993952048415,-0.2291986733670474,-0.022256384866532097,-0.2544241969001312,-0.2212583958410047,-0.012661080797837919,0.32768536880656735,0.4203650339830753,0.24001938941610992,-0.25327209859538186,0.3355017200149137,-0.04772857945241936,0.4566011742670453,-0.24853188457336933,-0.5549118693446704,-0.28987509741879736,-0.11859125304454377,-0.0108885809757791,0.40523528135987996,0.1482517648735482,0.1600394732125384,-0.2658825185811794,-0.2649474365247503,0.12119620516113773,0.42596744103305634,0.3163970308239365,-0.41287487788463706,-0.05349294218929879,0.4454202447705273,0.3282564967063083,-0.29477038491867186,0.3502697317231696,-0.41585150524660086,0.389784823552231,0.43660558181078873,-0.2838323582924829,0.2584121971497324,0.19828490435482604,-0.31043204512468914,0.12811116529836375,-0.26614081035341924,0.23989690490565807,-0.1427820054644464,0.2907532026062667,-0.25515714320328453,0.3870523658457556,-0.37075607927776394,0.3554226066707831,0.259285573611723,-0.15996189423354645,-0.49788029595152544,0.3855827212401188,-0.2588334866696988,-0.001808312674843811,0.22799006825374865,0.06157668873923946,0.45868015600833434,0.0740639950315782,0.19564489647298985,-0.34818523580458793,0.045031479953130754,0.3899152586106861,0.0540346718505011,0.4731794672788086,0.5143382328543668,0.21666575509816813,0.12663401004249275,-0.5242713434533381,0.14041880439029658,-0.37246603813595863,-0.3446334774368675,-0.026832277343749242,0.10202832328514023,0.35007965419586895,-0.05726547639917485,-0.0017276225264490812,0.5835647483169321,-0.3335086225838829,-0.06656914179493825,0.09911776608337237,-0.16496349915596523,0.21245756124458315,0.3194480783175274,-0.4476572954166359,0.41629739444437164,0.14831835171030938,0.2566946848994832,0.24509462049355926,-0.1499732391878209,-0.16694436743196134,-0.08427846475079134,0.2311628771165579,0.27358237356656373,-0.40713337016920176,0.3269863718232604,-0.2208899040786166,-0.011152908231647728,0.546142720018621,-0.4713871913731662,0.3679588735796242,-0.17996679308986363,-0.04253555332933917,0.14564523106610852,0.11566554981917442,0.16966887629378513,-0.019903946371720063,-0.4259157671282498,-0.28288199074800885,0.13076860104356489,-0.09641187798112423,-0.27997656939748033,0.03414331403297596,-0.2844921885740235,0.2548536125986452,0.1913637885763099,0.019820687062852674,-0.031768327114644654,0.4585357712951841,-0.2458961427507842,-0.26448769387823423,-0.39919914098712783,0.13109554949980295,0.3960587792692002,-0.16658798347038564,0.43018894108928135,-0.43768343818880817,0.12778021850497498,-0.15373862393451732,-0.25175801787408114,-0.0027212365789057763,-0.053480783162980695,-0.397499790690943,0.0781722930704658,-0.326843498365336,0.5044766137014302,-0.3527615223714304,-0.45048883455244554,-0.41035948014216844,-0.38048706922791836,0.3085973208811714,0.2828420351402902],"bias":0.06441891002980535},{"weights":[0.2165486623115318,-0.17218162786116734,-0.12348254537103513,-0.276789448095144,-0.30749590681537803,-0.4691908643935129,-0.1352996802901524,-0.02990635514725121,-0.3364620932990419,0.3402942591297184,0.2473104007076125,-0.07551907258787906,-0.023318154063155034,0.16600518508869846,0.2358153249240903,0.2596220531850639,0.11717284723583453,0.21433749530949212,-0.3887501124496088,-0.42656897836511665,0.016807959139659504,0.27867130545142943,0.10978875252442855,-0.39394692744241344,0.48533549474760657,0.33722346174268036,0.1985794106177721,-0.10636522395482371,-0.19435366003773055,-0.0018107027303166242,0.11115180193389718,-0.2459539407235683,-0.2097225738812612,0.242958178938482,-0.42883383844034734,-0.1986694453117685,0.09963667680776764,-0.35759334250332425,0.2875001481889108,-0.3435229253535779,-0.375500134425601,-0.13436655273350248,-0.5201484097243123,-0.30852264690177994,0.1932220669000975,0.4630205972567754,0.18196682731365638,0.18157952764663302,0.4511975052258359,0.272838695524351,0.2715280276459821,-0.32582708610659306,0.046017110630654876,-0.1944832963041242,-0.04965704864102675,-0.37959139373534967,-0.2622300817060634,0.017089261722522946,0.2709621973786321,-0.03779157513529542,-0.09498470990878201,-0.13408152035045243,0.034944786209699874,0.02098374809601326,-0.08823121219883247,-0.22350093428887002,0.07807409681616292,-0.05977629123618476,-0.360963768815886,-0.4914051868382898,-0.48069571467967526,-0.18521987412162866,-0.2654297388248063,0.00700964533840835,-0.432708333946864,-0.4316099363671999,-0.11523594561040684,0.44489916285645686,-0.15653058172222825,0.3847645867020331,-0.3985654297730445,0.25117612125372674,0.3612081935237397,0.29402450319544526,0.06438155105736036,-0.4162534026532003,-0.4813065765102815,-0.4347548392938363,-0.18846416359325016,-0.04476578248219475,-0.08292307987214054,-0.23176157244238704,-0.31464011339982445,-0.2515142825551233,0.3128278815335458,-0.22779590294667315,0.36190479876782244,0.2514279448073838,-0.45975006193586093,-0.11861812638108506,-0.3640578079427477,0.029106328598906807,0.2058532579319843,-0.02095238590141801,0.12202591223919822,-0.20067927089544657,0.04118285071856842,0.20361043350430977,0.39389839613899247,0.05247297430346149,-0.3686602521880019,0.33624470485235075,-0.443409380221258,-0.3794226253401574,0.13269619411475392,-0.4823058484884246,0.1777007830446819,0.03737261100353791,0.09515499191251604,-0.06475806449923246,-0.2474963487749656,-0.04554487273575072,-0.14322643850851535,-0.3397151708879356,-0.18415406518142668,0.12675456608352534,-0.027046023894382116,-0.17975388028297726,0.19908114544500138,0.03486128055163801,-0.020636669666859498,0.373233643024837,-0.10218076352361354,-0.06455736467145036,-0.1002404884246773,0.40447038221470516,0.21800774394745498,-0.31524848362537294,-0.14861846002174686,-0.09484074099785866,-0.36864023064950285,-0.43169929885743413,0.3698523309523541,0.3544580292432686,-0.012416989762394618,-0.1439215191370137,-0.4878413886197097,-0.37888967081414127,-0.11711433053802615,0.1057253208946973,-0.3493893752963831,0.3341302200851048,0.10172436523740234,-0.19423705846371386,0.4363573513952415,-0.14941071561563324,0.30548786391537314,-0.04320066438373725,-0.13793136072611728,-0.2796252157307093,-0.14395933712517964,0.06325518664714562,-0.5012819409756641,-0.34741861062569035,0.4335147062319783,-0.027900290091461586,-0.12108431043030572,-0.36459592547487074,0.41387040272639675,0.09961586467131421,-0.4827512198126705,-0.19522046272587357,-0.05272084798322904,0.2589810421778649,0.05486129559853899,0.008922201184636415,-0.13861796411127175,-0.1477234858430283,-0.22495579727441067,-0.18745097768008004,-0.017854478222227,-0.2168616325844106,0.23880042315421382,0.48137736882262705,-0.4959543049134201,-0.20468922980683496,0.0806288849960073,0.34412101895271513,0.1690815320808683,-0.25031344000390204,-0.22025784299444387,-0.12605937637435338,0.20601739408388314,0.01359543282824723,0.11316290542448774,-0.4451773622061534,-0.03166045277519236,0.06137764344579436,0.2808700200760743,-0.49138501415853075,-0.02510008246593213,0.1816869723711623,-0.24272581533704565,-0.07201064071456159,0.4970156362534031,-0.3072114035990645,0.04485644277728326,-0.19598215853846232,-0.29261768715949577,0.13934008348973276,-0.21477320122444507,-0.0749408298320046,0.24881100087345265,0.48549123853007325,-0.24346023976575265,-0.4788797621131456,-0.4440439755680024,0.19654251594460587,0.23795349201401564,-0.27826888924881943,0.03937380864915014,-0.4778642947007435,0.2356965692924622,-0.05827804763052301,-0.027324416627865014,0.03457056213263746,0.43943486603591175,0.3936858495553565,-0.4808649792139443,0.004578195963652258,0.3253499540175284,-0.12666616771280026,-0.22970480289784714,-0.46082449765267197,-0.43471997781233435,0.007289492364753687,0.21216441308065564,0.08525935254069264,0.18964116954661084,0.3101012095262456,0.015785773750952737,-0.2849881185092946,-0.04555818046928172,-0.24637202204534095,-0.1149733525852702,0.372112646321751,0.3191806334395945,0.16591744038448678,0.19598358667071106,0.34504127407056606,0.27187025824715816,-0.04175468382742874,0.30034769303585507,0.3553564766353915,-0.15461705994438787,-0.29684356742133167,0.03327408441359225,-0.07620903313856268,0.12286180761148384,0.4129043982976376,-0.08957764325267682,-0.26651617458711535,0.4159878164449118,0.18927215802550898,0.3392839680706978,0.30659948260127345,-0.44913117172342204,0.2943294443566854,-0.15426817776219554,-0.41511469734404693,-0.47487169367206455,-0.085046075819825,-0.04057417195907839,-0.2338785613228376,0.07012822757889772,0.25004181343348647,-0.059395657070392065,0.46537783441959807,-0.3374065883973919,0.07606391643384042,-0.04793796760763472,-0.41361128173786904,0.3969882682807649,-0.024231543222260798,-0.322014304472564,0.03628530451237759,-0.17526171133882987,0.18240862701197227,0.051271720779353956,-0.42410885589921743,-0.2530287427382097,0.18054647564151566,-0.3361680892737762,0.2595093217276535,-0.22894970648819446,0.18338916397107188,0.025970047646186642,0.25250461329572005,0.00985569480840811,0.006559256182043306,-0.038943834834356886,-0.4935133264383889,0.49865715935388616,0.452124221825358,0.05417208487410827,0.12367486801763106,-0.3730710166381972,0.18532798131717107,0.38629326245196177,-0.382327399466639,-0.2324446507424297,-0.4009837641817383,-0.39463801724180875,0.15969647651028382,0.29267038502234444,-0.07029237090965659,0.19194726921485808,-0.5002917285895685,-0.2562303255041999,-0.09996169229639479,-0.41751439613324737,-0.10899759928842609,-0.28488842282611837,0.008617759870980318,0.23866161171034392,0.03545454132099412,-0.17439994192936542,-0.3598308011866737,0.1641002462063574,-0.34953644862624517,-0.20419224117586623,-0.1766097106409364,-0.09502385876876746,-0.48796119362268375,-0.2252252505600675,-0.1725975894922232,0.04145360452356387,0.4757272289677127,-0.2805762980730433,-0.17271897889825596,0.23860927050334813,-0.027789782593705327,0.12678416587231484,0.40866851024407747,-0.005748642477200498,-0.4445450200980727,0.028767018406160815,-0.027237747460281188,-0.04485527983645396,0.09069647870067114,0.261204841128603,-0.012471201322196365,-0.32954159260597166,-0.3475855643000177,-0.16172628805162698,-0.11315495861888797,0.41342588375257805,0.2345283862485773,-0.22518266612867568,-0.02119432243295769,0.21419341701961989,0.010638818221107139,0.19950475447417493,0.3170883017446747,-0.13313087920337172,0.330758314566041,0.34596851686935826,-0.014168668330394004,-0.10916641630114159,0.05028349593877044,-0.23300014566234983,0.279521340685484,-0.27587012733194555,-0.3602345832316462,-0.3337038240500364,-0.2643429189916903,-0.4684098863408093,0.34271886946828434,-0.003436873003871915,-0.07391164513232075,0.015858001993576388,-0.36404595384321925,-0.4246019358720812,-0.16719248168898246,0.16936537171810423,0.030547534811672064,-0.35181025678118866,0.002121662549780271,0.08242666700011665,-0.49524644821361397,-0.360430314821804,0.43107922852247693,-0.27772711031014136,0.32603354316066685,0.26704699044677216,0.43401047152342964,0.13860160532752536,-0.11134753030633616,0.10704291870558293,0.4249171932304729,0.00021253385837808144,0.5012232269359768,-0.24915876829187536,0.04104166614162519,-0.4942615997485741,0.3063496642494439,0.06623593580064997,0.3597744673580837,0.10911631846113329,0.1559192099231285,0.11224345135854763,-0.2422238756154579,0.5019854808124478,-0.3471131472793689,0.23330150579447595,0.17342286488764022,-0.1754792773158444,0.2647901455697848,0.09714096893322269,0.4918706889260958,0.09477085110624539,-0.255932300531318,-0.011265663531522105,0.18654386056111047,-0.4750506757108733,-0.3365901901389147,-0.4517172177938862,0.371895835065153,0.2747291120072471,-0.1589586926071666,0.4896769872957391,-0.18651298099086383],"bias":-0.03195457716577005},{"weights":[0.25939557328037993,-0.44468062586748314,0.10986367078412049,-0.37218457242249153,-0.2761390723162644,0.20432834169275035,0.27597026683409803,-0.18647495885773016,0.43039833699001667,0.18557578002101655,-0.3143224488580784,-0.09801934241675125,0.17998282198973758,0.3287793786576776,0.131079858217717,-0.37207251380706036,0.17970910520493072,-0.057373181658837064,0.027965050319397226,0.4464272025254771,0.36556783695284206,-0.34284462998386495,-0.5986981913653114,-0.000059690232659781583,0.282130177172073,-0.4836589895813475,-0.2873438178648608,0.3653641560905843,0.5142808144413079,0.14417114514202686,-0.0010744547690021324,0.16870969470118852,-0.3365585713510816,0.41368850322490514,-0.04057254065579417,0.26752614603824987,0.2783190022852134,-0.32920971602292265,0.09161405626542864,-0.24423729616914863,-0.332423088396803,0.4378730868617071,-0.1679275488673861,0.5093418994124923,0.15074022987329921,0.3942686435859797,0.3663440472403944,-0.009617236562894592,-0.020334725811238092,0.07077419365425497,-0.08964267157045283,-0.5368802198884947,0.24217245642106972,0.6226014822002665,0.14989578023933994,0.6020860848805548,0.14152389673702942,0.007754804809795476,0.4977596129100252,-0.42481563655701204,-0.015095845033772025,-0.6125597513117751,-0.3619930467671063,-0.2931050660639102,0.1834441518709709,0.7051664351716237,0.24836958512927107,-0.18087991140888593,0.26936461908762815,-0.45572604463943284,0.5290789072504767,0.1744451368680449,0.022855966617155755,-0.3969319093856474,-0.1920426300570251,0.5222093867700872,0.40062403475777897,-0.06579542592415222,-0.500886533503025,0.11542748418267507,-0.2002029418381545,-0.3135369572268843,0.08754359965851569,0.03923172467254175,-0.19880417029233843,0.08645049539059188,0.3934226841175928,0.31536676091885096,-0.21952122644797198,-0.3968340269578132,-0.3782590866428021,0.15080080163271162,0.02171679785146325,0.07115312202958915,0.4863486866688307,0.39197248778314203,0.3611234914995415,-0.03709047046241116,0.5029693141346876,0.5844070951457366,0.6191970467241064,-0.22172696345175424,0.3647058288429387,0.16915418721185055,0.2626672135158252,0.23227448899624015,0.13560768798357806,-0.07592812982294375,0.16846877510117572,0.5887681266961611,-0.13598422407205568,0.2569253735880665,0.22379200465145746,0.49162448958233423,0.4750553975685112,-0.05928909696015605,0.21411296854314688,0.3586318061536992,-0.16091226024895758,0.05298755758752575,0.07413519847662772,0.42610579134375093,-0.20885937307088223,-0.2896668321042176,-0.07047440255879693,0.5195460240266275,0.17864131088086882,-0.34075298765268613,0.22430997208593703,-0.3775805848119946,-0.1806353977789311,-0.3013082685568884,-0.3977453024026054,-0.3861721228606472,0.0005344562625889886,0.4383025339108257,0.5871666662314162,0.09449061841800353,0.10503556721447664,0.20498683956114927,-0.2844894597878546,0.341729701967772,0.3347992761375384,0.3194620358163742,0.14988530908527717,0.17205092925157578,-0.021175542922450444,-0.40952326058704996,0.032081566552931116,-0.4630203031273131,-0.4393120561864575,0.32163176155819406,-0.07165991937846403,-0.33672234906531867,-0.04029277691125771,0.32446512139404465,0.2132305812091655,0.12115114250587812,-0.20625823762504547,0.3386440849522445,0.008117873442247577,-0.008151959644400188,0.48166017851252085,-0.23377288027842744,-0.1146883192800213,0.1283362602147747,-0.2707011824789721,0.1862979691795091,-0.11639033452703985,0.15527330809686404,-0.471484143012018,-0.11753576460151458,-0.26458018750070916,-0.29190042155597756,0.39297542200868757,0.23008931975148675,-0.18359579397646747,0.5357123643324666,-0.18246951630343972,0.42936884178338747,0.40871235953272445,-0.037829541974474086,-0.40262919697626487,-0.5243605296531124,0.4109946431145947,-0.02965147243200632,-0.40758953167863876,0.2645567099340192,-0.1824305347274055,0.3275220309464288,-0.3323521838438509,-0.24543755421419453,0.07969295452145976,-0.1867709781641718,-0.4468127739017059,-0.10094748460697442,-0.43633667489638484,-0.22541138897705565,0.21344651004838183,0.0986415877392144,-0.11009530980091653,-0.37179907031763804,-0.01931494761615934,0.16026257796715299,-0.40367497937819136,0.03928719179476357,0.31160006977120847,0.38107375465990556,-0.14698136639065607,-0.2746492787514407,-0.39077251821293824,0.5749161969006017,0.19613071268831808,-0.4216522898403145,-0.4039825134099661,-0.1371315069325339,0.25324821577629253,0.028832348663034787,-0.19713780171533535,-0.1829317263018057,0.1067901249417325,-0.4958342309925221,0.28135030780127107,0.567603811021463,0.32026953829005494,-0.3907430901325092,-0.07973488514088749,-0.43519674089633864,0.3573715437541753,0.26934781625793264,0.23141840760288865,0.2562880897578105,-0.41391970903216174,-0.2887173562404556,0.31488486722954057,-0.27785975568958593,0.095492994442015,0.3922943152318156,-0.18014419711958712,-0.22094353484967483,0.5022389135964268,0.01706970483797544,0.17714472421342375,-0.16907951837206742,0.07320604731734937,-0.21291078860709362,0.025093322825747142,-0.38334411934067963,0.2444181610225382,-0.029289296519078006,0.4303226766549606,-0.15807232765262622,0.2854074112298845,0.27876573844597746,-0.30884244419380324,-0.2343975581339462,0.34490119871413794,-0.40585429749500457,0.08033801178786747,0.28610523172288826,0.43940013702863745,-0.3362935595974922,-0.414152261053493,-0.24471913156895322,0.3220722567076319,-0.013477017590078931,-0.20233841127038218,-0.19864652183347892,0.2047999195472994,0.40740532035562943,0.23295785208176037,-0.017531298005753412,-0.1404857432941581,-0.08067512194042169,-0.07390487330892113,0.255362038823691,-0.25852132281739815,-0.4348123961945449,0.14718612402696638,0.08043426875100113,-0.4244854255264558,-0.2119149385232429,0.11838062498339814,0.4538977130216414,0.21711543869055747,0.010586402945313758,0.12796450601705853,0.39036317023581263,-0.036425384475764745,0.05300299325838913,-0.21732347382430678,0.10542600029347901,-0.13329385984481373,0.46598693219242354,-0.14047042618421304,0.1611308223090072,0.21485972663359496,0.4914043151911843,0.13584111389021564,0.03720855052758061,-0.44401859703878516,-0.44079461265464737,0.4120575488259978,0.011192191291644137,-0.018717669976004516,-0.12861615546813748,-0.02321651188828894,-0.21524903234066184,-0.36697958684676046,-0.23551275193823737,-0.22456093418475603,-0.14167113375361343,-0.1811814936131309,-0.1527383132147582,-0.014189624643516668,0.30915808924546745,-0.2747010640388566,0.1395055990408955,0.20983497695824788,-0.2382739054358673,-0.34581999329270496,-0.489060171722404,-0.3874969453627163,-0.3164649236052613,0.0025075215873718313,-0.026679842355169656,0.11424959969059624,0.2174060263202563,-0.5335380982353306,0.11113636058363732,0.046044352701236496,-0.5698486046719006,-0.06169932108410911,-0.5819042187891125,-0.4660709515506615,0.17724686544301627,0.05389138386220858,0.049321002055104604,0.25725175460551164,0.4140829176278753,0.23149371454049059,0.39371801618927543,-0.3413093091796825,-0.14621325420090064,-0.6044094061298033,-0.20493937558997508,0.1499125111019353,-0.23424425992798123,-0.33014842671913114,-0.00542712482111636,-0.2861026623094749,-0.1313872136694035,0.47182503594551944,0.2246903435288868,-0.2638453130136079,-0.22259848393847045,-0.42452141313121333,0.164092026779594,-0.14610660587863164,-0.4589761719494869,-0.3293369180398177,0.09155640837689423,0.009290570268349839,0.004131398942355877,-0.05918789441627152,-0.10784497693386118,-0.3865645395593581,-0.0038503687238489416,-0.3889241036791086,0.009715333068969883,-0.011404104421667125,0.4900858179802652,0.44178653632608955,0.3294432117636939,-0.19416256127715392,-0.24093724618416126,0.5796711976335308,0.3970450745283373,-0.07547406829117141,0.034393547376552064,0.2907087993225165,-0.3486948174619851,0.3120253080317696,0.03557501473237154,0.42537768703483386,-0.299379650491598,-0.1615574849468711,0.07611688822864035,0.2827651435546779,0.21723653400793097,0.2554605696045053,-0.3479091649368332,-0.5274382785280374,-0.4385416375838295,0.10769636452375465,-0.26179571935560686,0.06908623280905084,0.325187594635629,0.15159587278016046,0.16816225487636785,0.1476301011337747,0.3114601604769667,0.0793553593066716,-0.4351224789082522,0.24785826992736162,0.45473670851147313,-0.05303599213885812,-0.49043779368135826,-0.004003446854940827,0.5715073650267973,-0.08645466708832199,-0.4142374936306681,0.025548492598397744,0.05928992977320862,0.03416162901978078,0.06699730976433076,0.22540574345101858,0.227303577385415,-0.2624615253474094,-0.05347946984991504,-0.09146605380700698,0.07304418496125928,0.4822473784430893,0.36157034138842703,0.042037363447995864,-0.3059680817739162,-0.19590279579584563,-0.01438075249343648,0.058779088478138744,-0.5073951063726653,-0.3457673897178832,0.3483576520090811],"bias":0.11801998273330783},{"weights":[0.26122383265129506,-0.6674928642079045,0.14158852897151208,-0.4461927891384479,-0.31849191381486985,0.01652544695737082,-0.22549899181029254,-0.06815672614323962,0.177418693366091,0.13486610239561517,0.09816535567119346,0.20832690319637054,-0.3801382888349096,-0.15048961158046711,-0.009783470392803945,-0.6138586251071932,-0.4409404744808454,-0.5047549037000802,0.38636380860290387,0.3422789847913708,-0.1529935914149607,0.25376825823944366,0.8006487774919028,-0.17686162006831196,-0.18004922625198372,-0.2498791554158916,-0.057945301637070824,-0.2322999218020387,-0.11309829253675986,-0.28678753358758013,-0.3791124081136895,-0.13207978229521775,0.5430983475416057,0.6723276201944812,0.32620471750932545,0.5103570461330346,-0.5743317202174942,0.3297656383916846,0.06208675356494285,0.5463493926590309,-0.26429474258239766,-0.17766571639711715,-0.17923340286842337,0.030709441564590663,-0.32635180118556606,0.30029017967238253,0.16342470602049156,0.24547093510551452,0.584255507217203,0.30421122119675986,0.2379177197626506,0.056364134114585435,0.052043721212695356,-0.3271773709900748,0.18383667724325933,-0.4722513823929188,-0.262024849545984,0.27041409453160137,0.16069965781996362,0.19385532141262354,-0.24116279542317454,0.4249623329387709,-0.02614850714130893,0.35894246630232285,-0.15453658948583593,-0.2065582942665629,-0.014270127110858524,-0.3877077973963776,-0.2323609374347064,-0.0821599499266604,0.07119481098923257,0.1989037345824002,0.48800934642597726,0.2070494922678909,0.06037287333666807,0.3255544030349303,0.15537585891192293,-0.17398227097972607,0.03635442089815448,0.09452639291500514,-0.3375727109717109,-0.30942432101033723,-0.2659870449374863,0.4570948548034838,0.4411136520591849,0.15747577289063985,-0.05314443215544836,0.715839233244341,0.683292270744716,-0.05457177461635135,-0.3293623865799067,-0.29208961329224253,-0.13198569695963822,-0.11321422627031225,-0.28918060423404685,0.19698583688593135,-0.40664821180052746,0.11996399733508374,-0.16577008098981025,0.1575327128161452,-0.11983579419131629,-0.3593889503558358,-0.28097995724661373,-0.18940440828126612,0.05670510455288015,-0.0049507055435507475,0.04519429786415437,0.13160526396249708,-0.33989288715889004,-0.045041907296538904,0.1135961741002155,-0.09832495719423755,0.24224326848618802,-0.021387936485808636,-0.17853762346706387,-0.16677044485290451,-0.11147333084100101,0.14164801400380145,0.5443099384231419,0.350167865768881,0.0758415220007748,-0.49205384955604364,-0.1861320632768523,0.030693053477545543,-0.47885211231976055,-0.15922343261210842,-0.008317304395242503,-0.33547516055619997,0.2308340392359878,0.07535707516525818,-0.20669989702577668,-0.30588088750274295,-0.57835644678128,0.30258011537725393,-0.24184558169969914,0.0696080631953382,0.1518394398741651,0.49388454510775376,0.1279694303899155,0.05646127713554153,0.09603077740511178,0.023183301210351715,0.48234795481476844,0.3421290495409947,0.2931838989174717,-0.08379503904205104,0.2615178239827974,0.3609397453644718,0.03027304702666941,0.3529592895905278,-0.4397345158312954,0.15788627559836385,0.038725218918570455,-0.3437005052448103,0.4773810888931082,0.33030073687077227,0.2721693346085958,-0.21622266082266803,0.05956817893156817,-0.20137651678837049,-0.28159269399226927,-0.15725881927697188,0.1384853368841123,-0.4954818558405055,-0.2524916606726312,0.18413324879168316,0.3465770265627312,-0.24408691729001072,-0.41180979520540767,-0.019015179457758966,-0.008053640170079776,0.29768214463131487,-0.14716615156539456,-0.36696167730052376,-0.3028690048598537,0.0979923664551931,0.3134847971091637,0.299469619441248,0.5816619494181758,0.5854509430256435,-0.4378059501231058,-0.10085115016090096,-0.11782475217386847,0.29330853929722567,0.12969739148136758,0.18049968533147814,0.7680222234876373,0.8880984104225941,0.9404507869430324,0.8166372971630557,0.5554213616536596,0.4552126465427718,0.15326004835043036,-0.18123596488885796,-0.004677984140603151,-0.08337391306238133,0.39140045634462256,0.09624671671099166,0.8208473454931181,0.6766173894552782,0.844858819441352,0.1736301107057081,0.5787580684648659,-0.217886868310236,-0.3778850592657678,0.12887563326648815,0.04000816127484753,0.37425458067555223,0.31027486082572303,0.09056256543851893,0.24448124313666225,0.20368475889349255,0.14594113495664193,-0.05821269151820273,0.0013661869642424198,0.015757740859372656,0.44848819998157874,0.44693369118850934,-0.458434059535942,0.2006649113214378,-0.33014792158372314,-0.47353332124267483,-0.06442844402100097,-0.03908497987585148,-0.28607312238339844,-0.5133696616702961,-0.23982631281452518,0.05487731364968565,-0.006852899923059277,0.3714655417143081,-0.12003628207949017,-0.4798074244267902,-0.8791158984936328,-0.6461784450514904,-0.49104082596973386,-0.3305339236974347,-0.2974223642629253,-0.5044046835172378,0.056545993158705836,0.2678121854532544,0.17276931191474965,-0.3247098475395074,-0.2847734991570471,-0.10786301728070728,-0.2734592736423967,-0.035005423841720305,0.14622920642966186,0.2685620941411825,-0.22136866953040282,0.2714430377804547,0.5328498504524065,0.10751133129408512,0.3738752687777051,0.10958427145778352,0.18324309927955432,-0.045374135847995524,-0.1632471034892941,-0.29568063725584864,0.039001379293949916,0.29032894231061723,0.5085085764875584,0.0947912615861144,-0.0005651735558521924,-0.07614146900042118,-0.15670822642111473,0.3292668811449882,0.17095286676664562,-0.4432510647546618,-0.024534503745654402,-0.000952418092715546,0.4886320469827491,0.08098399364075945,-0.09548266889012473,0.4674033598154556,-0.19917495227861315,-0.23295639407844787,-0.4076385436634818,-0.06972212280480744,0.16812557611964,-0.07177594045693486,-0.3952600057014074,-0.31308610973308376,0.06280793407389851,0.19619868160351392,-0.1048351379526905,0.06676613750853662,0.3004889422599793,-0.45120169630220264,-0.13125846600774776,-0.24335789547773495,-0.4334653265932032,0.33131820182249916,0.10758538382977131,0.11799886676069817,0.1947926657953107,0.4486792042900537,0.4611659643527351,0.19623210334046473,-0.06213353787437617,-0.11519437841641635,-0.3043833480074179,-0.29183886070459086,0.12874281794406017,0.1732124416691448,-0.20572797603190957,-0.05098604824809316,0.4690832889817916,-0.07517914970035686,0.37052105195622786,-0.05925104393406717,0.2613628006664632,-0.35176630165636646,-0.2190561089483058,0.3009651347300126,-0.040462458704687246,0.5741677303146894,0.39911717488580606,0.16212446522761348,-0.4214833893550972,-0.40170999471733826,0.045491554062016874,0.26622357674536845,0.2067489238765976,-0.22922685389815203,0.302070537950973,0.3300493948411435,0.48332507257993995,0.8556449322578892,0.2071576170294683,0.4371180438066145,0.28025392010805217,0.13118298332222275,-0.4201573021591012,-0.1569355059329103,0.48575371856371086,0.387487289202695,-0.0759705038575006,0.2632005996299025,0.6145605077762384,0.8433969496717396,1.0942930316901556,0.33919567042929666,0.10512553047513694,-0.3577402925070535,-0.4733144046356468,0.07572016976094917,-0.23547951710840911,-0.31032096801738784,-0.12791915763554215,0.024856842853137842,0.3138339063943382,0.49993106799338993,0.4200002391334163,0.41928094789776793,-0.1364821409806561,0.34802355104363936,0.7717535633991394,-0.1881585301648354,0.4758722583910792,0.2559882651550551,0.18850077398975673,0.512554220364647,0.23773272393295147,-0.443487926646095,-0.5814434098063406,-0.6274468804795112,0.33087682009092184,0.4133828265973339,0.4555925581490536,0.40447462883510277,0.49350415782171503,0.28517622077969224,-0.4319025126522487,0.5124425090490569,0.17023152210277348,0.022850567432023763,-0.06301336100045793,-0.24680497578704808,0.7301756846879381,0.4803093313612832,0.42341192645358966,-0.3517876504490683,0.1401669916497827,-0.47486389969369625,-0.304123788206066,-0.07036291288448654,0.6097212272050652,0.03729106094612321,0.6772892828065605,1.1647091946396113,0.059098942482321185,0.040009690952999596,0.08726411710620635,-0.3075355291955156,-0.25656451908016265,0.09639988990877835,-0.6220703725146471,0.24243428892731433,0.4016616295109933,0.5516874294095355,0.7490285860668385,0.5088972863037554,0.1704240041456449,-0.09705333710571788,-0.36822287120442787,-0.2566810476653295,-0.04925820328953164,-0.2564583006197924,0.24780521255514562,0.16755388939316476,-0.16049857301343606,0.16192987722350294,-0.05140155071044817,0.60124764894594,0.03097220052141319,0.2030935710852025,0.14997422044718417,0.34293502502864426,0.27346873629814783,0.14636775706141592,-0.012898818950168669,-0.05386043705054545,-0.4399032551161813,0.11498753326243165,0.04635295955012809,0.20880597931539727,0.12955066347681993,0.4463660066421558,-0.1251296057719803,-0.4217692226637678,0.048953728722153,0.21005709513661625],"bias":0.20201838743675163},{"weights":[-0.41911796955802383,0.5055532885730631,0.488055489525759,-0.40728744344970486,0.0870960506668542,-0.5557258698775067,-0.34577124549230315,0.013483499257421611,0.31411582697456314,0.2802359020729787,0.009341454742393744,-0.25883059715874995,-0.39911635593596717,-0.06108404620294677,-0.10735786315048389,-0.2953940544665041,-0.19958400014008132,-0.21626779620494715,0.44299182723374314,0.5794437322752505,0.5595995248026874,-0.002182879780181649,0.6444893131967779,-0.1933936884004953,0.3611176225840649,0.02316822883799375,0.47528468579558925,-0.31598236421383985,0.6263687100905198,0.6798743451671782,0.09104623298876818,0.4256581303678253,0.7379627522311418,0.5326548755527017,0.018600052465549577,-0.31939197397547164,-0.20294216762367734,-0.25850268286516254,-0.06057778198460786,-0.2418258410758047,0.1546328449484692,0.5932656383077071,0.5134991369933244,-0.33211629333056714,-0.31905845242003456,0.1772395675135959,-0.24838336084169063,-0.2624247715748925,-0.0530790905970305,-0.4894171439107188,0.24473336311554417,-0.006353347625224475,0.032400065413434626,0.5654024555091963,0.003449036848755703,-0.07448503183594161,-0.21921403023984232,-0.008189700570898465,-0.36198394111427745,0.0497301994337576,-0.31701762382904286,0.21756404267558327,0.2320535623231137,0.3057124239693295,0.0612772995202739,0.37216011160660295,-0.229719536885136,-0.15650703084818304,-0.06572934981230495,-0.5259935513105926,-0.4094297181836609,0.21877350012878502,0.40617336083004196,0.18383336090248253,0.021402480571908983,-0.11307157681240726,0.06755280281682417,-0.04273399694755274,0.1312524237206954,-0.2098552035127357,-0.3569158045827222,-0.1787023279179854,0.299450740519405,-0.1473036309747893,-0.39446792467516956,0.36862639323954255,0.2619757107046983,-0.04497988648919159,-0.19626071879396004,-0.2545189601632703,0.28893128991407807,0.47762795414761877,-0.21832413735397385,-0.11963109048778316,0.07562021867126095,-0.4000198392365161,-0.41830765001338094,-0.241942821863441,0.4339532230562851,0.21057857937641125,-0.5871282248940745,-0.22836443057195255,-0.15193211701182727,0.22388888666350693,-0.009226110124594986,-0.09086085102358438,0.322749662105809,0.4637567201087149,-0.23628255733868644,0.34503179586898824,0.1214957725405904,0.4750202136839501,0.4333138719996662,-0.05002472873097924,-0.24206554796984955,0.18785699988746568,0.6143235669474254,0.3966615451267756,-0.08607093249289641,-0.2394631965972607,-0.04384315602748682,0.47599932921996524,0.491285475174416,-0.1829531957330177,0.22373253491811584,0.11820042167712322,0.46398555777740386,0.2369831048754242,0.12396984613256495,-0.277938362175342,0.02782614304183161,-0.15893496756151645,0.1864312358048622,0.16604414205528803,0.5449151651352937,-0.014152744030967793,0.485345696768193,0.2108538057493603,0.5545477159307288,-0.035838329248411585,0.1149912026370187,-0.12096120822594206,-0.3911152530753581,0.08926870980580233,0.4304726625411083,0.29554042135326763,0.10144917095605954,0.33965863869683166,0.5253991959203967,0.09457442738107465,-0.4550962297159588,0.4686169191959738,-0.32844290580350993,-0.21961583543558466,0.06382062357773285,-0.02622010597277156,-0.34063421914902314,0.3719019220850053,-0.3190635055452563,0.4120720507437373,-0.17347212966795567,0.6068075313388821,0.7098321987938038,0.5665123575135476,-0.00920418241430889,0.48859528905446126,-0.07800174395764797,0.5621501382523852,-0.16513113481220373,-0.225374477166524,-0.48327453102719,-0.1423611994274087,-0.35347432134693124,-0.1667648011111637,0.17545638348687798,0.023420758168785753,-0.15243515642444652,-0.14427464928217895,0.19646612268518002,0.34390404846875394,-0.1189435833542891,0.06010808671809494,0.3292557363482194,0.4258600504218307,0.26119707899400063,0.027477661743069495,-0.30781323658041115,0.4290758812830001,-0.48576155803146837,-0.4725568287787997,-0.06915632154388328,-0.07343786115637152,0.4419091778965059,-0.32233302939042574,0.4807516905790863,0.2313547840100398,-0.4861619014787457,-0.0462267763420055,0.23301519917050859,0.22041972027686865,-0.6306707610904443,-0.4977722417094578,0.25307113619724275,-0.37935625955662816,0.08055392834189712,0.4580360736126358,-0.1637889700546992,0.46584156316097614,-0.0010654156523012502,-0.31879558334167973,0.3230167755320598,0.1320172971349461,0.18493113172553732,-0.12764223723489274,-0.12291958717801216,0.057724928451227564,-0.47536997902524647,0.21584130625997075,0.1855285263871581,0.3451901741819826,0.1431780272615666,0.25132347553533113,-0.043406118685161775,-0.15715341380391043,0.3534903356696745,-0.18320186924701037,0.23100669217458705,0.05821840380969694,-0.3867170509133354,0.11928699254101625,-0.020331437343813902,0.05867478543478559,-0.1705659867323811,0.26015297866414183,0.42059417626974915,-0.24708895015900853,-0.4296815011971814,-0.40717037064980965,0.23139135589245435,0.5305198111384218,-0.38692974930411234,0.5084897249168271,-0.06003935084439398,-0.3372539203032358,0.15581579898426248,0.3515662309452996,-0.24961231189943336,0.4831198114385307,-0.07429225012244395,0.4292080881845645,0.44832356766034714,-0.35309297816569385,0.4449838123311451,0.06649663411096937,-0.3539256654575867,-0.08836492090236822,0.17147112073012383,0.06472263329586835,-0.22105394916629523,-0.13337052676753788,-0.32622122280564,-0.21671409377549816,0.2852948279592032,-0.27688005930871956,-0.11409829213947577,-0.4019001426157148,-0.1906577029207702,-0.2615243880691217,0.2621536980913188,0.3126550384269181,0.10913221608662513,-0.008241808243153365,-0.3816580011971893,-0.14147671215853752,0.46980985271266407,-0.08083833544569964,0.08668650663831719,-0.140389528203217,-0.219712086490842,0.4207310889227936,0.0495352834551826,0.0947629225372891,-0.03551044697399911,-0.31834522777650903,0.14152305541971408,-0.20237269272475344,-0.34739308125797197,0.016299744032322244,-0.0122642194696169,-0.08184653930902334,0.28551114083580914,-0.028831708594292703,0.17359043118070464,-0.2914609405727621,-0.44066372054881936,0.42895512090928717,-0.2481428581163263,0.17374443102439374,0.4557231016165431,-0.07503804855431691,-0.4293037416676759,-0.42592854107833183,0.4231630611633513,-0.46553249901236055,-0.0947536241209347,-0.36865294963117584,0.21095592378977263,-0.3723316439978998,0.3508594736643313,0.417930540126204,0.1789706123769609,-0.20392780871828467,-0.22687534265749779,-0.0923407415864223,0.46639474823171584,0.5051042191784918,0.23802811790023848,-0.16611087438254202,-0.23876192504422972,0.20567701744280315,0.5714548640360352,0.5950368111567085,-0.056008086867433034,-0.2355122911065412,-0.13375579176983549,0.5441958168645713,0.22829751273602286,-0.011675630578209495,-0.006159941973821257,0.096089293859861,0.5854072310627595,0.6380666453013641,0.6340549875009359,0.21015463724791036,0.0008311555155568603,-0.04941095401175521,-0.15196697393211503,-0.23898530566540982,-0.18539873781580254,-0.19054593560815986,-0.0013147690087462595,0.21818033175327456,0.5469288610853668,-0.10294980429619659,0.0035827580059905545,-0.07174164837313436,-0.2452850614531138,-0.11482285977998853,-0.2630788908656299,-0.11111426341440886,-0.2524320507262317,-0.3010416255276952,0.24000552585335758,-0.11098563065167306,0.37687731665070473,0.17598261050146566,0.11687148518309577,0.3330678048037679,0.4007851400124421,0.2679875622852701,0.10724761906275776,0.317639143371435,-0.42269422638569365,0.34939841659305837,0.20832699264295437,0.18656439849432596,-0.45687362428743694,0.1564589061858927,0.4070113588442478,0.0005878123348640261,-0.21247121042893913,0.3919723396789335,-0.36612871519355417,-0.2930666423125874,-0.025767245913702143,-0.06278772581497517,-0.37768794581559867,0.04699314752617323,0.4188620798979591,0.021999978958960532,0.3906926874168297,-0.43489868324830133,0.36603669460919397,-0.06884659842392438,0.41879257119946056,0.10074232316372181,-0.5232890506395373,-0.5437390221865347,-0.46554617405445575,0.09496075115259674,0.552447829360718,-0.16230849804242392,-0.3173063894835017,-0.21818101379177057,0.21968148661137762,-0.4799503386015624,0.3375202248965134,-0.20128218067880588,-0.38112117365626713,-0.20575642815919382,-0.43386534855475273,-0.04504080143245746,-0.13630998214366405,0.41116461787794156,0.38040839857362,0.26598715736095657,-0.04818090992395671,0.46913959431490526,-0.41077542914280474,-0.24688068217965226,-0.4317985166432546,0.12707342462287105,-0.15385390592391388,-0.1474968800499828,0.2313873728470298,-0.050914873316806726,0.43869520834478065,0.37012640404839875,-0.0049838457512961475,-0.17496477526185156,-0.3510163783839346,0.51341771464388,-0.3614815524394907,-0.22311199396718384,0.15764081703560295,0.4655534738467069,-0.35793034160083753,0.33572313850831587,-0.41615146571842654,0.4469341216007705,0.06414938164372079,-0.42566254116528074],"bias":0.22652821369165665},{"weights":[0.2796208673568931,0.000579253894735583,-0.16801664991291915,0.020289886293481982,0.41802388988600553,0.16146770011015976,-0.18889919360312102,-0.10421768434848529,0.37169448197706834,0.38636849290589764,0.3426091697234376,-0.26130566362854984,0.2646521507251526,-0.02831339603218268,0.5269181399018124,0.18577406709710076,-0.15603941948459735,0.5198749196486284,-0.13652589037274668,-0.09663488565171197,-0.3377618746933114,-0.0959233432287221,-0.22389879475561975,-0.014296865296320968,-0.38650713304054474,0.46128626656367605,-0.010249610338631681,0.6545191828107068,-0.049617120366326276,0.5917352197075173,-0.13170208851320298,0.1569138919207906,0.1059703162630737,-0.3484297293920468,0.06738880432416743,-0.08655040359523174,0.19975839898433068,-0.14035906028988582,-0.33714097925288705,-0.09095305069092884,0.4258696739091253,0.24057348891948527,0.13971308119366568,0.14960632452397982,-0.34829175434218784,-0.08752011837813115,-0.09605547143152285,-0.5150427397478202,0.004255573453093494,-0.0770329363589126,0.34298846324151994,-0.2737404231549095,-0.22186104118824942,0.07039281376044249,-0.29832894306876917,0.10920909588007724,0.13799879237766785,-0.5032685809517379,-0.5120289350474196,-0.24848581370939865,0.0710273319719759,0.087563477274812,0.35867307531227227,-0.3192115113136323,-0.05438464789701106,-0.060129130457044815,0.6833137436717596,0.13461489247496397,0.4375600283784889,0.12323675821467422,0.1016754285353517,-0.40805135126984526,-0.04034912082551174,-0.38410291635618093,0.11980536864506705,-0.40689640576169667,-0.3782177360782614,-0.002253582869002629,0.11136267844306666,-0.0051983559992523345,0.01705028219204,0.30840975082416455,-0.34510680308555974,-0.1581202010428248,0.36378845252708464,-0.25581317610037163,0.20860614782539802,0.41549016489555246,-0.36134957170912246,0.10766434855130146,0.09667612087672516,0.6687323500290389,-0.31650805586628333,0.357064448787783,-0.026227639994678465,0.3336785492821375,-0.06763535176525964,-0.29525119222545715,-0.022391964757845162,0.431164984883997,0.4093802992042123,0.38606179313635647,0.4846044707117095,0.47854744433449975,0.6253497203903556,-0.2835591498901389,-0.42239367775886216,0.03356727944028616,-0.17918026280992502,-0.2683577721039945,-0.345599967190022,0.47957851022591963,-0.1900627200477232,0.6703938287822827,0.03484939016409008,-0.38653572860315943,-0.04130957106134586,-0.11331546349470052,-0.0218448201039296,-0.25728692031137534,0.5079987019485747,0.03419794740825073,0.49023115316972804,0.27600285034802835,0.5341327118389769,0.08685455799233033,0.2714357727467878,-0.41069558658591926,0.11982526555099057,0.018040431344422538,0.21058522144794375,-0.025250726311531572,-0.1267135461144119,0.5148009858814225,-0.11290776907602056,0.540947346931834,0.10088601862924637,-0.2924659876579963,0.2776211590889687,-0.10072555540637299,-0.06458094619777291,-0.19144174101414893,0.43202059351983124,-0.42327497073534454,0.11055909304446962,-0.37693228652821986,0.3511216861720334,-0.24091932953810832,0.26598632607318495,-0.4063973279368013,-0.4761170582893708,0.4092389545881626,-0.14659170469854343,0.391871112508791,0.06849039774274679,-0.09068897510321736,0.2616268093967886,-0.10242653753929207,0.08186025883954945,-0.2542408474237894,-0.008765984061957418,0.37018852254130313,-0.24808897578728883,0.09292216818648408,0.605627612062693,0.22303477027988763,0.3877948599200559,0.01893673312083101,0.4500018373953457,0.3612698755968873,0.3144414932711368,-0.2972480380291975,0.06245705025583402,-0.00419453086890068,-0.4117792082222263,-0.04589697488158518,0.05182268710023047,-0.29700260474699103,-0.1852156757419896,-0.38169229537615307,0.10089526345031932,0.18095941399305765,0.36668893337573727,0.4218427524707877,-0.18515871130344913,-0.19665150873824194,-0.5311261238115452,0.2435144052831984,-0.011067871828244815,-0.10819240207866378,-0.2207821998277505,0.3660518417534563,0.4320463913367415,-0.41122034894436854,0.39433900945093675,0.3250671963089104,0.12932068863329368,-0.10588689357630335,-0.04096425772325361,0.000401339409109098,-0.13398357849667064,0.3184354291810576,0.3297658014997654,-0.03775576820350803,0.031066429029307816,0.14322644763073358,0.4817104488022578,0.08700283541499916,-0.16212677909890308,0.15982653827967697,-0.33394350355641034,0.12659050299141053,0.17721749935019956,0.33890387170720376,0.16095761320662344,-0.059691985737842505,0.2803330101287956,0.1562900287177746,-0.34341856117612507,0.030817817031422647,0.3490341219828578,-0.24638315337892186,-0.49633299368272477,-0.29112497982524027,-0.07130384472231346,0.125276963654758,-0.45340279618863955,-0.44645437566741447,-0.38784041325258994,-0.17028011089615994,0.3199298159223403,-0.4479391116351699,0.39558842617849294,0.09072670673923328,0.23268427391382196,0.008269430175681127,-0.4398559140353442,-0.18048324468848143,0.16015840658572092,0.01198006936179822,0.10239421018785719,0.21861657283405153,-0.46391446216873644,-0.4235928492410351,0.11401671860428064,-0.2953085068189318,0.4311409079171594,0.4022911736352729,0.225621292564717,0.4551436615861485,-0.44783050170566446,-0.3159800519104503,-0.2505860252213266,-0.20073224179245489,0.1639303855989116,0.2802292388087098,-0.027160598501483047,-0.2830248567916701,0.3894416085830183,-0.18377703611996207,0.3695563585033193,0.23051384819950466,-0.34827637159614794,0.4920580438095861,0.3009706122201094,0.2173296462071614,-0.365746278969444,-0.07818085101907413,-0.47969335035594124,0.23436841786513016,-0.20319951816467255,0.07122728700043582,0.25969474455214514,-0.3634866704750639,-0.33814936443952476,0.305013708567252,-0.13267619631760433,-0.4238178986021471,-0.3883564138494974,0.46737785752581046,0.40257215097484145,-0.28792420819492975,0.32827512771456857,-0.31421099575206607,0.038663659396860034,0.3882098331067611,0.1591033024283861,-0.18932612976726143,-0.4119411435852475,-0.07972968108648755,-0.3488045058671989,-0.0008535197156461042,0.2772347828783856,-0.36032980002406373,-0.3359274100801408,0.1595921431999516,0.1787656065494223,-0.11500669708726373,0.4321973332151144,-0.10204188096154963,-0.439282886892758,0.0011155618171995174,0.41143289317244797,-0.3892386368276521,-0.4220549663001824,-0.3297932657430823,0.009468914514741456,0.1780142645499688,0.3548524153660362,-0.09268283622251193,-0.18003523694415732,0.41501279006557124,0.3164285385057779,0.3280318404459454,0.008833692114768477,-0.048770574167571565,-0.052989637396430936,0.3720259371331135,-0.23452146479789926,0.5226332805268229,0.4696926774944542,0.43570528796760766,-0.2632172204024839,-0.3763534480968698,-0.37515287715485857,0.04991458292718985,-0.1342947896880862,0.16904577772131754,0.1803616621928604,0.2646927807817333,-0.18512460977169642,0.48246755766975885,0.3304998410780004,0.042675438157230655,-0.09478003177119372,0.3902916167246454,-0.2857206214030243,-0.38309720464266644,-0.10779601322135315,0.29840716387025656,-0.41021645775458,-0.23710384478681906,-0.20620462560600655,0.3258661859988809,-0.36071598096531343,-0.4571399389388846,-0.2085602513647209,0.1500881279169497,-0.255570847415924,-0.17676149756995668,-0.04582981992866293,-0.07915708777898213,-0.45228522904444707,0.11128415733307497,0.20917640541227464,0.10949777986480765,0.19930684456622813,0.40109125921971117,0.2654468306030507,-0.06624078050728739,0.21556952659037718,0.2671618581278287,0.44413587868700327,0.11837728886403331,0.13553529132322592,-0.16971269925839083,-0.18600010401732534,0.35216518597004437,0.38733813528633404,0.4805513067733269,0.05220047578271522,0.47121809437513373,0.41068306606405225,-0.25401488668050515,-0.2209215186855455,0.34637509133741456,0.13657334431646545,0.10044022871049843,-0.2002456604022795,0.5417960545962148,-0.29126513629599887,0.37443537447318387,-0.44127013899335266,0.12051863170463645,-0.1006715207247702,0.26092842420020285,0.12162525439043143,0.4347348253189338,0.5584779788425906,0.49111324559790914,0.45239016541481697,0.034103344051025136,0.4663862330643536,0.4071900001088081,-0.4899024093409659,0.3585358163846861,-0.014169165290998197,0.2064338120259627,0.07593625328851529,0.2442934958328076,-0.12017534394360639,-0.27388209664946866,0.21915240254578652,0.27029878306558347,0.376231158459779,-0.47358940765662116,0.10082123988958416,-0.03781741910009665,-0.44786081919181964,-0.34328021278426807,0.15927864284072046,0.31234897491114844,-0.3346999522578976,0.400982420061927,0.2850885208702089,0.4171144171049868,-0.05450930978598027,0.3050290928624383,-0.08543576016212306,-0.25020882103654474,0.07622483929451818,-0.41897508018900154,0.06462295505967111,0.15672713741000913,-0.21249142361973095,-0.18229433861365682,-0.260129945850989,0.3261643981796872,0.47531388261541585,0.36314354234781326,-0.1489922222619552,0.0519239836687695],"bias":0.018966437576761676},{"weights":[-0.4935139990343686,0.10529479578939929,-0.29090604636532436,0.4395293619213987,0.5460520394984294,-0.009145759010411628,0.7648698394351522,0.12464738624483927,0.5456087789073275,0.5188182031437756,-0.01077235807444705,-0.33008154883405133,-0.036593664813135106,-0.3400149368799002,0.14042304389529572,-0.12797172855775216,0.10495471862281419,-0.40266753416043016,-0.17138833914118576,-0.09079513753148022,0.5104544106793127,-0.14691715140395523,-0.15802451085957384,0.18527203476563556,0.03737628443134193,0.3284304760102248,0.19714385440379098,0.2550238368489929,-0.5329989115232203,0.22630556742349553,0.10116683743019912,0.075087958088586,-0.27585566798212163,0.3535102137926938,-0.1069067202828151,0.5208007986990287,-0.16805435710310687,-0.2034486781719214,0.0024062390579716775,-0.3221608390955074,-0.2277553426572537,0.08343497596868019,-0.09274957336580189,-0.16039770204031648,-0.1906493811567365,0.30031327655413925,0.5534208041186949,-0.07617272331526419,-0.004499475301110934,-0.2910389010045066,-0.5943304709255393,0.15700365770299166,0.29053699072436684,0.25670941009704706,-0.2076402782811591,0.3728981752587505,-0.6400649214767938,-0.5057029986557188,0.21841335716601606,0.41172419335524574,-0.41445501156447606,-0.18311216710981532,0.11975725674153952,0.07295201174359517,0.512462537402432,0.24285048638166196,0.3689234055032373,-0.48868926708788535,-0.5258938530908587,-0.3918738075881477,-0.14317007131034779,0.4317921733503054,0.019679493241275867,-0.00884071664610291,0.3005712613450523,0.0024839085290524923,0.28356366508926895,-0.20442325200182102,-0.15303337930553101,0.23302252724917877,-0.004534186044508335,0.12556059697973426,0.02484493610636418,-0.0741316711599537,0.3007802774776284,0.15226213155652576,0.2010533473229615,0.2987047994639872,-0.3473809575157252,-0.26477632220979835,-0.45012337325947205,0.003005281492956568,0.3382465318218001,0.4951082979309431,0.2641426937373558,0.5381475647480111,0.6187462010756486,0.5355174475029099,0.07213755210189791,0.44069115549126486,0.49143020556512707,0.4658821692063785,0.1255063115850289,-0.17669195710383717,0.2724606568193526,0.4587290746825374,-0.13769874257695125,0.1739649717656767,-0.10685285365497801,-0.1781164469632792,0.2373066655384676,-0.18877756253872438,0.4496755218796545,0.15196570007238958,0.4627708177791654,0.37273117060641003,-0.3330686458473338,0.6155532601599882,-0.04267641167759087,-0.43420310410964863,-0.11428205589978528,-0.28382054586765343,-0.03498666711499588,0.44016085956246287,0.6161040658483138,0.25091564798529614,0.10624482128584165,-0.1879728409861148,0.09995105054289184,-0.1072729492494773,-0.13797523759168964,0.37639344826383625,0.3527169101379913,0.3626654504009687,0.11035166523696624,-0.38622736982839495,-0.1103958109187918,0.017275974533950047,-0.4039716426060248,0.1981570847230406,0.21563107526553252,-0.2737448535613947,-0.2872419459582132,0.3721742295451044,0.4993046347568419,0.025332729221751952,0.3966645343414922,-0.07324540048148326,0.05342608064868446,0.3715637502134975,-0.2482598918423474,0.17639822147113998,0.43075441372300666,0.45042659887085695,-0.400950897378729,-0.18705629358766268,-0.18304194842163357,0.2866096243598249,0.36379142159967714,0.29349386310426023,-0.4057156857916032,-0.1090166768187159,-0.3583495433536357,0.10836124136304501,-0.1368745059883378,-0.39889507249292777,0.3479066562285254,0.16408987752748325,0.0669446210776335,0.40514529876912464,0.3293389795613366,-0.1467898398932354,0.05037769542304259,-0.010983063959390364,0.06441681484176419,-0.3544719425376062,-0.06196289444929035,-0.12046377551764202,0.10418465851868804,-0.0303621711725631,0.25599173092933075,0.2908605367343856,0.07040124346391434,0.3934999250347163,-0.028754600405076478,-0.12366956936627431,-0.515779373392985,0.37028518479649447,0.20516425822127204,-0.5178548002485523,0.17202154091255065,-0.119846068160373,-0.30668409131100827,0.28780783284701594,-0.4170755268467223,0.3032560751178304,-0.3995131564355771,-0.1272181119420418,-0.2753856640672815,0.448234512125885,-0.19445260076818607,0.21855649681207015,-0.04032723600523337,-0.13316521183182026,0.4429773762133075,0.0004893552382523041,0.012881024402752014,0.4645240776310057,0.3859777830497184,0.14098097315417413,-0.11866189562303271,0.5009284042697343,0.23477786576413043,0.32507337823284865,-0.04577482891035507,-0.407467083433609,0.07125863397994484,0.27886102133487756,0.16803840503685227,0.46306640015452694,-0.04974011313837828,0.10903796856366664,-0.2995232049812981,0.09889810216385383,0.3327053791562629,0.11073004813658979,-0.11801653840199915,0.23545883635107664,0.23803312507256313,-0.4120210061434087,-0.15448965505581053,0.4704751322044094,0.43924051631124883,0.08154144593103257,0.32554418599271046,0.2254649101088975,0.7003792778699149,0.19222658157197692,-0.12357422836090148,-0.2871543233110415,0.4805390166016995,0.03683455715477505,0.15173208490988746,0.13485987428554486,0.41472516907105644,0.08871292929588233,0.31453169318167645,0.3839123391563617,-0.08638748072224181,0.42711375582552835,0.5557228534525267,-0.12791500425788419,0.15761639565890456,-0.2610149572155178,0.4780916205177501,0.26877296363671405,0.4973924007943804,0.3965471197886888,0.3746969960087038,0.3844035626541685,0.5966312269784287,0.07143704245063696,-0.44829086636873366,-0.04224772189774308,-0.2450639205173235,-0.3708572661781902,-0.35056251330191235,-0.4678840978767679,-0.07626210013792752,0.3141332387805063,0.06233192039250542,0.3676860443669877,-0.37080333657806297,-0.43428586743986414,-0.383094878950329,0.21330540771200607,-0.12214286846523326,-0.35167814263206154,0.17359201364137972,0.3875184607601888,-0.2577688290804648,0.13921601407632553,-0.2411232335511014,-0.2200643086076691,0.03753492689672442,-0.2502789786031623,0.26499550554545825,-0.3036283958009035,0.00529497318448582,-0.4217117219500994,-0.355051916768587,0.17165242781916815,0.12309565500425355,0.26903456952206145,-0.15301007649979653,0.5091368830546915,-0.43213725542293635,-0.2357430120219784,0.006372717396978423,0.14893117774253628,-0.006745856952933363,-0.18001215651509792,0.3982686361665175,0.29728397063720896,0.017338669254818116,0.547121078211306,-0.1980736074960343,0.5778814946273728,-0.3673163337995309,0.2370541674141318,-0.2351273083822032,-0.16720253485704245,0.10572490987167972,0.39577241785004824,-0.1931758920086134,0.1560765295125714,0.35769116760922415,0.4715406486083748,0.4782565391414975,-0.4067826521686181,-0.3015708634781526,-0.5036484477963162,0.4650305023709304,-0.46536949004071987,0.01372937947053376,0.1021877832694812,0.3203257383036289,-0.3216932855373256,0.10894715791749511,0.007783682178099774,0.29303267647499054,-0.3367660002167554,-0.3089612681384174,0.18892742483377356,0.5098955096260681,0.502256415144137,-0.026736489812633494,0.08654939432625897,0.18306442824517405,0.11664260664706866,-0.21021920663566224,-0.291982239511933,0.17053079486168995,-0.1396534649758714,-0.09692817898530176,-0.22729464391455279,0.45170031942266947,-0.05716342586769486,-0.0006688172630663131,-0.32344710659294273,-0.053584724251625374,0.05009111832253198,-0.26392873394182814,0.10356711605005385,-0.44799031352828195,-0.10770433257113358,-0.5598740369136361,-0.05232937153641478,0.165178606025329,0.20072705556811374,-0.4080222843120912,-0.1329378309157918,0.17380286897447414,0.23794898647227428,0.08842104779125237,0.10559901075900513,0.27380453689437945,-0.5153021030852535,-0.5968405888486726,-0.2890131869558936,-0.07959708432517472,0.3794899662879053,-0.35113110499527916,0.26825753278217507,-0.4010538051981789,0.3579743827376289,0.5209920164086459,0.11440011061402251,-0.11721374284694035,-0.545264995823746,0.1049802857625574,0.1783999564300437,0.32216155995347695,0.12758492256454018,0.4635904288197217,-0.04608439667058018,0.05528238726724844,0.1548127574382884,0.5138907376927236,0.49643562316856815,-0.08692822514034695,-0.34384584603394625,0.12826321405678334,-0.28705046027008524,-0.2512183022501095,-0.04842258376246395,0.645206756064434,0.4211947573219003,0.4267651134944922,0.06405970753907779,0.5681389956687698,-0.053368016838605654,-0.4504534717936114,-0.4471501767101219,-0.5217011182568032,-0.39566627207559596,-0.39709653653596466,0.25214223711863837,-0.023999905809276433,0.4736674179335604,-0.07266964941308904,0.5031436265739503,0.24841783284633218,-0.10536963042290245,-0.427217769369547,0.07527890881365495,-0.4810321996392957,-0.5344183638617357,0.005747550992684141,-0.27707958910845165,-0.047878524348690665,-0.49698086590527296,-0.6312265724647536,0.2739385384908586,0.20246531026482595,-0.038192985185279624,-0.6950156833613822,-0.2676457566192576,0.15883881352563042,0.12931512661135905,0.4055198163026329,-0.16935604854147576],"bias":0.07285159352684548},{"weights":[0.15077533651844388,-0.017175111861579793,-0.41501193766935907,0.2842054455798116,0.3900441146203047,-0.03560563451491631,0.1282136150979574,-0.43402354711745583,-0.2764929974784381,-0.24910122085578779,-0.40126909600289595,0.08161906271686939,0.2178424625608441,0.22243882936400908,0.3678981017497883,-0.20541366202628286,0.4022091929034716,0.37281829966326563,0.07911168965053832,0.27790597833958025,-0.0401350684406124,-0.12985945077045588,0.12338131761858002,-0.32125427859667915,-0.04085445910631087,0.3511991099932175,0.19023538019561545,0.673250528492555,0.27722997360532725,0.3362268709382991,-0.161488813363541,0.7187948940847079,0.8746925288174396,0.6469913801477566,0.09673663072334883,-0.09750266510389508,-0.05379475696890901,0.49179979354019887,0.47238118749507324,0.4431975707483576,-0.211809351643438,0.6553565735545055,0.244447833689893,0.8588794859729738,0.22181137111311927,-0.0752067354287944,0.6560481122624846,0.28122125345843135,0.4564220901384719,-0.08609121708343061,0.4806912161257109,0.20990578358488687,0.2291471318363735,-0.1254568364840812,-0.02224240898758463,0.24826005066272297,-0.30436789401896025,-0.45057012423212733,-0.5308690386980534,0.13147779771652487,-0.46265501059517883,-0.13987527704445382,-0.021242498354142877,-0.35555101322821064,0.19897007234193897,0.07733016752950676,0.2592218350515059,-0.26031734436105314,0.1879681826271742,-0.06299732631499376,-0.24699617601889828,-0.3375187980676154,0.38625596064387646,0.35772494268796573,0.15949621535070296,-0.4949776985864567,-0.37313803490434755,-0.040098849418518386,-0.21327956699728262,0.3317691094090426,-0.24801971890067906,-0.44834785612252287,-0.0011822831692642206,-0.19026564745111446,0.07768354892753768,0.049526332880134,0.1682903259688067,-0.5856828066372859,-0.2794903629316116,0.10611785567730914,0.3186214036247561,-0.6682782031411962,-0.07235961715108781,-0.04190579015914462,0.08058011891776021,0.08222703180003342,-0.028810654186231754,-0.314612427284667,0.09627317490565518,-0.024940321867850782,0.02654823102478262,0.08599457652915983,-0.47708679551394534,-0.056131817951474025,0.022304088545375397,-0.23329010926325067,-0.0671514550388136,0.4613178263410862,-0.05911999491774772,0.274928929623423,